%YAML:1.0
---
opencv_ml_svm:
   format: 3
   svmType: C_SVC
   kernel:
      type: RBF
      gamma: 0.50624999999999998
   C: 12.5
   term_criteria: { epsilon:1.1920928955078125e-07, iterations:1000 }
   var_count: 324
   class_count: 13
   class_labels: !!opencv-matrix
      rows: 13
      cols: 1
      dt: i
      data: [ 0, 1, 2, 3, 4, 5, 6, 7, 8, 9, 10, 11, 12 ]
   sv_total: 655
   support_vectors:
      - [ 0.253746778, 0.501109064, 0.501109064, 0.501109064,
          0.240075052, 0.282802671, 0.137986794, 0.127213746,
          0.0666308999, 0.303675205, 0.221652985, 0.152999088,
          0.109037519, 0.358699262, 0.213081583, 0.271739215,
          0.533905625, 0.533905625, 0.480287641, 0.314123422,
          0.0752360299, 0.151388749, 0.400928229, 0.110568441,
          0.0543406941, 0.480287641, 0.480287641, 0.0463931598,
          0.11856126, 0.541301489, 0.541301489, 0.0104306899,
          0.0377057418, 0.304137796, 0.541301489, 0.0730269626,
          0.22679086, 0.295486301, 0.500251472, 0.46569109, 0.220137417,
          0.117622808, 0.149585485, 0.444666266, 0.326708257,
          0.531815767, 0.356702387, 0.0770662278, 0.0161115732,
          0.156842634, 0.103226207, 0.220134869, 0.409621179,
          0.571424901, 0.00556684146, 0.12343362, 0.483818918,
          0.483818918, 0.0364437625, 0.0296613164, 0.483818918,
          0.483818918, 0.203395575, 0.215271622, 0.218210071,
          0.449089766, 0.449089766, 0.449089766, 0.31641686, 0.392235309,
          0.156808734, 0.133995071, 0.372812003, 0.418311447,
          0.297222823, 0.398785025, 0.418311447, 0.25742349, 0.287108392,
          0.192838147, 0.271307677, 0.00556684146, 0.12343362,
          0.483818918, 0.483818918, 0.0364437625, 0.0296613164,
          0.483818918, 0.483818918, 0.203395575, 0.215271622,
          0.218210071, 0.449089766, 0.449089766, 0.449089766, 0.31641686,
          0.392235309, 0.156808734, 0.133995071, 0.372812003,
          0.418311447, 0.297222823, 0.398785025, 0.418311447, 0.25742349,
          0.287108392, 0.192838147, 0.271307677, 0.00555280177,
          0.0267247111, 0.518308282, 0.358452827, 0.027154319,
          0.0401169434, 0.518308282, 0.518308282, 0.239401221,
          0.136737108, 0.158729911, 0.598353565, 0.598353565,
          0.0447272658, 0.0794431493, 0.200660303, 0.398216873,
          0.164092109, 0.392441183, 0.464272946, 0.469055384,
          0.337476134, 0.129717335, 0.334954172, 0.326392502,
          0.140712857, 0.191047892, 0.118193276, 0.0242452305,
          0.179058909, 0.144124284, 0.0332795121, 0.230587021,
          0.540829182, 0.540829182, 0.536597967, 0.388884038, 0.10368529,
          0.39805457, 0.39805457, 0.246919081, 0.0307339672, 0.371939063,
          0.39805457, 0.39805457, 0.191726819, 0.0547281057, 0.134667918,
          0.556693673, 0.556693673, 0.0584437959, 0.0479689576,
          0.0333282351, 0.556693673, 0.480287641, 0.314123422,
          0.0752360299, 0.151388749, 0.400928229, 0.110568441,
          0.0543406941, 0.480287641, 0.480287641, 0.498611748,
          0.504401803, 0.504401803, 0.182940528, 0.133943841,
          0.0195690766, 0.134527624, 0.152962387, 0.379763246,
          0.560632408, 0.354050219, 0.169355407, 0.101793513,
          0.156127915, 0.0447756015, 0.334911704, 0.250684708,
          0.560632408, 0.531815767, 0.356702387, 0.0770662278,
          0.0161115732, 0.156842634, 0.103226207, 0.220134869,
          0.409621179, 0.571424901, 0.36342442, 0.526601613, 0.401505053,
          0.39455536, 0.247757837, 0.171137825, 0.182547823, 0.174087152,
          0.335981637, 0.323878348, 0.481428087, 0.477145195,
          0.272617579, 0.46736607, 0.00529600587, 0.114493899,
          0.112346247, 0.332988948, 0.372812003, 0.418311447,
          0.297222823, 0.398785025, 0.418311447, 0.25742349, 0.287108392,
          0.192838147, 0.271307677, 0.204957396, 0.0547668859,
          0.0828027874, 0.396371633, 0.475968897, 0.272177368,
          0.330258399, 0.475968897, 0.387335122, 0.370589763,
          0.178788498, 0.493855417, 0.50105226, 0.50105226,
          0.00361846644, 0.0124919834, 0.0454078764, 0.278321266,
          0.372812003, 0.418311447, 0.297222823, 0.398785025,
          0.418311447, 0.25742349, 0.287108392, 0.192838147, 0.271307677,
          0.204957396, 0.0547668859, 0.0828027874, 0.396371633,
          0.475968897, 0.272177368, 0.330258399, 0.475968897,
          0.387335122, 0.370589763, 0.178788498, 0.493855417, 0.50105226,
          0.50105226, 0.00361846644, 0.0124919834, 0.0454078764,
          0.278321266, 0.392441183, 0.464272946, 0.469055384,
          0.337476134, 0.129717335, 0.334954172, 0.326392502,
          0.140712857, 0.191047892, 0.608362198, 0.289427608,
          0.165608302, 0.0965668932, 0.283691257, 0.240053147,
          0.219761983, 0.362919271, 0.430336654, 0.541614592,
          0.175266847, 0.113031313, 0.188732594, 0.470979065,
          0.319977313, 0.054762017, 0.03972831, 0.541614592, 0.191726819,
          0.0547281057, 0.134667918, 0.556693673, 0.556693673,
          0.0584437959, 0.0479689576, 0.0333282351, 0.556693673,
          0.0845181942, 0.0358270779, 0.0260098483, 0.56252104,
          0.56252104, 0.289044768, 0.11104162, 0.144595638, 0.485421956,
          0.097650364, 0.0481823087, 0.051821325, 0.582728982,
          0.582728982, 0.368519783, 0.105543867, 0.195643291,
          0.339514285 ]
      - [ 0.0563536137, 0.057293836, 0.0454173572, 0.00569716515,
          0.393825501, 0.665521264, 0.60771656, 0.091743879,
          0.0951261297, 0.00523287104, 0.0847373232, 0.281604409,
          0.024878785, 0.653410375, 0.653410375, 0.197762504,
          0.114114836, 0.0180679355, 0.37557134, 0.37557134, 0.37557134,
          0.0801766664, 0.37557134, 0.37557134, 0.267868757, 0.2678487,
          0.37557134, 0.0142982425, 0.0436523482, 0.0808586106,
          0.0345402621, 0.113890044, 0.696221769, 0.696221769,
          0.02131892, 0.0182745364, 0.0691617578, 0.287803143,
          0.466632903, 0.208984137, 0.466632903, 0.466632903,
          0.393449873, 0.235561833, 0.0227995887, 0.060054224,
          0.588508308, 0.588508308, 0.0573616438, 0.00792566221,
          0.0190244354, 0.480342716, 0.248977497, 0.0374028422,
          0.0516312495, 0.164879411, 0.0991450697, 0.0151374694,
          0.013906627, 0.575472653, 0.648580492, 0.445799857,
          0.0534654893, 0.428424835, 0.428424835, 0.428424835,
          0.254548371, 0.104836427, 0.18897745, 0.0970515311,
          0.374982655, 0.428424835, 0.0722803697, 0.629209518,
          0.629209518, 0.0922145918, 0.0177110676, 0.00320867938,
          0.304374576, 0.22148627, 0.214840591, 0.0516312495,
          0.164879411, 0.0991450697, 0.0151374694, 0.013906627,
          0.575472653, 0.648580492, 0.445799857, 0.0534654893,
          0.428424835, 0.428424835, 0.428424835, 0.254548371,
          0.104836427, 0.18897745, 0.0970515311, 0.374982655,
          0.428424835, 0.0722803697, 0.629209518, 0.629209518,
          0.0922145918, 0.0177110676, 0.00320867938, 0.304374576,
          0.22148627, 0.214840591, 0.13049449, 0.149558023, 0.0933607519,
          0.121158108, 0.0857232884, 0.0666383356, 0.662660062,
          0.662660062, 0.201411322, 0.212005258, 0.499163955,
          0.499163955, 0.322180539, 0.0278320517, 0.0571528487,
          0.186952487, 0.244502991, 0.499163955, 0.432709187,
          0.432709187, 0.432709187, 0.217886314, 0.0148798451,
          0.0137996841, 0.107726447, 0.432709187, 0.432709187,
          0.00948768016, 0.0163377076, 0.0794881731, 0.0852545649,
          0.0539593287, 0.044290591, 0.0878110155, 0.695173681,
          0.695173681, 0.0720530003, 0.0739758462, 0.489309609,
          0.489309609, 0.0907632187, 0.0337812081, 0.13181144,
          0.489309609, 0.489309609, 0.122106194, 0.0385384038,
          0.310587883, 0.669854522, 0.438261986, 0.169523388,
          0.0489114933, 0.0973958671, 0.446158737, 0.37557134,
          0.37557134, 0.37557134, 0.0801766664, 0.37557134, 0.37557134,
          0.267868757, 0.2678487, 0.37557134, 0.307456195, 0.0758252144,
          0.0877268836, 0.413632214, 0.413632214, 0.180097371,
          0.413632214, 0.413632214, 0.413632214, 0.264261484,
          0.420092076, 0.474142134, 0.495209694, 0.495209694,
          0.0407128483, 0.102042124, 0.0880010575, 0.11684335,
          0.060054224, 0.588508308, 0.588508308, 0.0573616438,
          0.00792566221, 0.0190244354, 0.480342716, 0.248977497,
          0.0374028422, 0.0153286466, 0.125496909, 0.369558632,
          0.058972057, 0.0489642136, 0.0334412828, 0.645192325,
          0.645192325, 0.0382190198, 0.0973018184, 0.295805424,
          0.370407999, 0.412979186, 0.412979186, 0.0985637456,
          0.412979186, 0.412979186, 0.264162749, 0.0722803697,
          0.629209518, 0.629209518, 0.0922145918, 0.0177110676,
          0.00320867938, 0.304374576, 0.22148627, 0.214840591,
          0.223712727, 0.333708704, 0.339035928, 0.018295221,
          0.0197857786, 0.00446235575, 0.588233888, 0.588233888,
          0.158075422, 0.427967131, 0.427967131, 0.15601787,
          0.0791003406, 0.15541029, 0.158728644, 0.427967131,
          0.427967131, 0.427967131, 0.0722803697, 0.629209518,
          0.629209518, 0.0922145918, 0.0177110676, 0.00320867938,
          0.304374576, 0.22148627, 0.214840591, 0.223712727, 0.333708704,
          0.339035928, 0.018295221, 0.0197857786, 0.00446235575,
          0.588233888, 0.588233888, 0.158075422, 0.427967131,
          0.427967131, 0.15601787, 0.0791003406, 0.15541029, 0.158728644,
          0.427967131, 0.427967131, 0.427967131, 0.432709187,
          0.432709187, 0.432709187, 0.217886314, 0.0148798451,
          0.0137996841, 0.107726447, 0.432709187, 0.432709187,
          0.406424493, 0.406424493, 0.242729411, 0.0108995605,
          0.0145901162, 0.332845837, 0.406424493, 0.406424493,
          0.406424493, 0.332817942, 0.3611646, 0.0545208566,
          0.0382527858, 0.0378196537, 0.447725832, 0.447725832,
          0.447725832, 0.383508414, 0.122106194, 0.0385384038,
          0.310587883, 0.669854522, 0.438261986, 0.169523388,
          0.0489114933, 0.0973958671, 0.446158737, 0.325829655,
          0.0626015961, 0.0622835308, 0.286958635, 0.252896518,
          0.660146594, 0.532573462, 0.0394594595, 0.110270225,
          0.469290465, 0.469290465, 0.221740901, 0.0244514085,
          0.258047879, 0.469290465, 0.449211806, 0.0858841762,
          0.0953371599 ]
      - [ 0.368651122, 0.491053253, 0.43477717, 0.0802762881,
          0.159784868, 0.491053253, 0.393852741, 0.0257049128,
          0.011738034, 0.502676129, 0.502676129, 0.169165313,
          0.0298902355, 0.409287661, 0.502676129, 0.197879687,
          0.0238380041, 0.0133564519, 0.564114273, 0.564114273,
          0.033305373, 0.0730478391, 0.289084464, 0.1906012,
          0.0457820706, 0.352880269, 0.323963821, 0.32681334,
          0.463055521, 0.457410812, 0.0444845185, 0.0831664205,
          0.463055521, 0.463055521, 0.145715073, 0.077159524,
          0.369474679, 0.540351212, 0.540351212, 0.0873857737,
          0.144176334, 0.471782118, 0.148422062, 0.0313841254,
          0.0108583504, 0.3787103, 0.380897909, 0.380897909, 0.344697982,
          0.380897909, 0.380897909, 0.380897909, 0.0807516649,
          0.044939585, 0.113948174, 0.430559874, 0.430559874,
          0.237525403, 0.151776031, 0.430559874, 0.430559874,
          0.397475958, 0.0612060502, 0.0400615558, 0.478032559,
          0.478032559, 0.262883365, 0.478032559, 0.478032559,
          0.0928834975, 0.0403281152, 0.0140928868, 0.00974457338,
          0.502251327, 0.502251327, 0.121533379, 0.164311454,
          0.409866095, 0.502251327, 0.168339506, 0.00475676544,
          0.113948174, 0.430559874, 0.430559874, 0.237525403,
          0.151776031, 0.430559874, 0.430559874, 0.397475958,
          0.0612060502, 0.0400615558, 0.478032559, 0.478032559,
          0.262883365, 0.478032559, 0.478032559, 0.0928834975,
          0.0403281152, 0.0140928868, 0.00974457338, 0.502251327,
          0.502251327, 0.121533379, 0.164311454, 0.409866095,
          0.502251327, 0.168339506, 0.00475676544, 0.0781410411,
          0.335657448, 0.350092173, 0.28395465, 0.213162273, 0.337142259,
          0.454125553, 0.454125553, 0.319271207, 0.0873256102,
          0.668296278, 0.668296278, 0.144624561, 0.139069125,
          0.130089328, 0.0676717088, 0.157547608, 0.0766959712,
          0.0047476464, 0.549589872, 0.549589872, 0.0127491467,
          0.010810473, 0.020876877, 0.549589872, 0.295995295,
          0.00368313724, 0.0739534497, 0.0851264521, 0.122686401,
          0.474598169, 0.405403644, 0.268457741, 0.2352449, 0.474598169,
          0.474598169, 0.0763498172, 0.582799077, 0.582799077,
          0.370902389, 0.111009739, 0.0719513074, 0.07817287,
          0.230591357, 0.307716608, 0.00635903189, 0.504350066,
          0.504350066, 0.141823977, 0.335144073, 0.188627139,
          0.504350066, 0.252095133, 0.0157450326, 0.564114273,
          0.564114273, 0.033305373, 0.0730478391, 0.289084464, 0.1906012,
          0.0457820706, 0.352880269, 0.323963821, 0.115580551,
          0.120501064, 0.0462788045, 0.210668445, 0.295091182,
          0.0442118458, 0.0821924508, 0.641639531, 0.641639531,
          0.0554263704, 0.0119018639, 0.214236215, 0.515994251,
          0.367266715, 0.043095991, 0.197207868, 0.515994251,
          0.487445116, 0.3787103, 0.380897909, 0.380897909, 0.344697982,
          0.380897909, 0.380897909, 0.380897909, 0.0807516649,
          0.044939585, 0.010235941, 0.0327452384, 0.143189296,
          0.456379712, 0.456379712, 0.188205138, 0.456379712,
          0.456379712, 0.324361354, 0.0119264666, 0.040040724,
          0.153388038, 0.341243476, 0.0822101757, 0.121574536,
          0.624121308, 0.624121308, 0.226835653, 0.00974457338,
          0.502251327, 0.502251327, 0.121533379, 0.164311454,
          0.409866095, 0.502251327, 0.168339506, 0.00475676544,
          0.00558634056, 0.0155704767, 0.180215672, 0.550001681,
          0.423118025, 0.212008655, 0.550001681, 0.364367485,
          0.00353747373, 0.0695714876, 0.17348218, 0.163747221,
          0.478600025, 0.478600025, 0.403434128, 0.478600025,
          0.288964331, 0.00607056916, 0.00974457338, 0.502251327,
          0.502251327, 0.121533379, 0.164311454, 0.409866095,
          0.502251327, 0.168339506, 0.00475676544, 0.00558634056,
          0.0155704767, 0.180215672, 0.550001681, 0.423118025,
          0.212008655, 0.550001681, 0.364367485, 0.00353747373,
          0.0695714876, 0.17348218, 0.163747221, 0.478600025,
          0.478600025, 0.403434128, 0.478600025, 0.288964331,
          0.00607056916, 0.0047476464, 0.549589872, 0.549589872,
          0.0127491467, 0.010810473, 0.020876877, 0.549589872,
          0.295995295, 0.00368313724, 0.0112418607, 0.0235614795,
          0.0168555547, 0.0239108615, 0.0359523557, 0.0386774912,
          0.7030797, 0.7030797, 0.0036974859, 0.456980556, 0.456980556,
          0.438801646, 0.456980556, 0.275301546, 0.229902327,
          0.173680454, 0.0969041213, 0.0905183256, 0.00635903189,
          0.504350066, 0.504350066, 0.141823977, 0.335144073,
          0.188627139, 0.504350066, 0.252095133, 0.0157450326,
          0.429419398, 0.224811554, 0.00733714132, 0.0269538555,
          0.111060955, 0.251724958, 0.668366373, 0.482617468,
          0.0476738587, 0.47865206, 0.47865206, 0.089222759,
          0.0898514763, 0.21924606, 0.47865206, 0.47865206, 0.0793112442,
          0.0916244909 ]
      - [ 0.507235944, 0.507235944, 0.217247009, 0.0326815732,
          0.217448443, 0.507235944, 0.332744688, 0.0101965917,
          0.12922138, 0.2875413, 0.468123585, 0.468123585, 0.112109266,
          0.468123585, 0.468123585, 0.148276255, 0.0150579, 0.0361166559,
          0.361909032, 0.461631209, 0.461631209, 0.0345442332,
          0.177460253, 0.0334350243, 0.461631209, 0.22163336, 0.37706247,
          0.231635496, 0.368119597, 0.0567349829, 0.0586576089,
          0.153068498, 0.616283774, 0.616283774, 0.0604811572,
          0.10639938, 0.0541535392, 0.694035709, 0.694035709, 0.12070097,
          0.10522414, 0.0319319218, 0.00658586947, 0.000571946264,
          0.00798890647, 0.00112819823, 0.568669856, 0.568669856,
          0.00559810223, 0.00539429346, 0.00239285128, 0.568669856,
          0.155234724, 0.000247283431, 0.222123295, 0.434774816,
          0.502008855, 0.195608586, 0.165056273, 0.174757779,
          0.502008855, 0.394431919, 0.0311393309, 0.445069999,
          0.445069999, 0.445069999, 0.0251825228, 0.00904351566,
          0.00622983463, 0.0660527423, 0.445069999, 0.445069999,
          0.021220386, 0.547406435, 0.547406435, 0.0051464038,
          0.0012037789, 0.00214493461, 0.547406435, 0.29360342,
          0.0942669958, 0.222123295, 0.434774816, 0.502008855,
          0.195608586, 0.165056273, 0.174757779, 0.502008855,
          0.394431919, 0.0311393309, 0.445069999, 0.445069999,
          0.445069999, 0.0251825228, 0.00904351566, 0.00622983463,
          0.0660527423, 0.445069999, 0.445069999, 0.021220386,
          0.547406435, 0.547406435, 0.0051464038, 0.0012037789,
          0.00214493461, 0.547406435, 0.29360342, 0.0942669958,
          0.07002341, 0.461908728, 0.461908728, 0.185590416, 0.15248625,
          0.0237135664, 0.461908728, 0.461908728, 0.280688852,
          0.136360019, 0.460338682, 0.460338682, 0.359097809,
          0.00323174824, 0.00373571389, 0.0136164036, 0.460338682,
          0.460338682, 0.402820885, 0.407800525, 0.407800525,
          0.0463970415, 0.00126838195, 0.00090664241, 0.407800525,
          0.407800525, 0.407800525, 0.111511447, 0.330792487,
          0.401220113, 0.302958578, 0.238765404, 0.0938048586,
          0.280593038, 0.487835497, 0.487835497, 0.063464947,
          0.0948092192, 0.658829629, 0.658829629, 0.0311531816,
          0.0475977845, 0.0409486853, 0.210393786, 0.251226425,
          0.0972324833, 0.018315725, 0.524238229, 0.524238229,
          0.365378112, 0.524238229, 0.0848141536, 0.067126669, 0.123682,
          0.361909032, 0.461631209, 0.461631209, 0.0345442332,
          0.177460253, 0.0334350243, 0.461631209, 0.22163336, 0.37706247,
          0.133485049, 0.0531132147, 0.0998357981, 0.451991886,
          0.282310873, 0.0264835637, 0.530988514, 0.530988514,
          0.339846581, 0.146136373, 0.0142943049, 0.582931697,
          0.699034154, 0.334605843, 0.0145619484, 0.0617479905,
          0.0434278324, 0.158530384, 0.00112819823, 0.568669856,
          0.568669856, 0.00559810223, 0.00539429346, 0.00239285128,
          0.568669856, 0.155234724, 0.000247283431, 0.00582509954,
          0.0219500791, 0.0690058917, 0.0116644064, 0.0198186468,
          0.0464019328, 0.744334877, 0.655715704, 0.0247739144,
          0.0140919406, 0.0970675275, 0.682272673, 0.682272673,
          0.189013049, 0.0960618705, 0.0803915635, 0.0158970822,
          0.0301157422, 0.021220386, 0.547406435, 0.547406435,
          0.0051464038, 0.0012037789, 0.00214493461, 0.547406435,
          0.29360342, 0.0942669958, 0.422495693, 0.189433277,
          0.0132472822, 0.00283478876, 0.00772840064, 0.0507752262,
          0.612878263, 0.612878263, 0.159475118, 0.37882629, 0.150494486,
          0.37882629, 0.37882629, 0.217776716, 0.255115509, 0.37882629,
          0.37882629, 0.37882629, 0.021220386, 0.547406435, 0.547406435,
          0.0051464038, 0.0012037789, 0.00214493461, 0.547406435,
          0.29360342, 0.0942669958, 0.422495693, 0.189433277,
          0.0132472822, 0.00283478876, 0.00772840064, 0.0507752262,
          0.612878263, 0.612878263, 0.159475118, 0.37882629, 0.150494486,
          0.37882629, 0.37882629, 0.217776716, 0.255115509, 0.37882629,
          0.37882629, 0.37882629, 0.402820885, 0.407800525, 0.407800525,
          0.0463970415, 0.00126838195, 0.00090664241, 0.407800525,
          0.407800525, 0.407800525, 0.469353437, 0.452674985,
          0.000254470389, 0.000160901123, 0.00451472215, 0.183310345,
          0.469353437, 0.469353437, 0.309671015, 0.31475994, 0.278704554,
          0.308550924, 0.104248777, 0.0135710826, 0.201680303,
          0.57513994, 0.57513994, 0.094891116, 0.0972324833, 0.018315725,
          0.524238229, 0.524238229, 0.365378112, 0.524238229,
          0.0848141536, 0.067126669, 0.123682, 0.19387345, 0.0426516719,
          0.00528192334, 0.00243136473, 0.257252455, 0.657938242,
          0.657938242, 0.111472569, 0.0980872735, 0.489403635,
          0.489403635, 0.0691540092, 0.00413856842, 0.0169511605,
          0.489403635, 0.489403635, 0.168482646, 0.0597929321 ]
      - [ 0.549197912, 0.549197912, 0.549197912, 0.26222524, 0.079624474,
          0.0101014208, 0.0277159214, 0.0474424213, 0.106946439,
          0.612097681, 0.612097681, 0.31385228, 0.179509103, 0.13534461,
          0.131360814, 0.237751171, 0.0117106233, 0.146962166,
          0.631523788, 0.22668995, 0.273836046, 0.229080155,
          0.0950689688, 0.0630080476, 0.0597714372, 0.0248436444,
          0.631523788, 0.559331656, 0.559331656, 0.559331656,
          0.0783709586, 0.0129914945, 0.0051514674, 0.00683841435,
          0.0989387035, 0.199212939, 0.332778692, 0.332778692,
          0.332778692, 0.332778692, 0.332778692, 0.332778692,
          0.332778692, 0.332778692, 0.332778692, 0.266452581,
          0.316930532, 0.528601706, 0.528601706, 0.171895579,
          0.188909858, 0.347424626, 0.209529191, 0.186005905,
          0.094964385, 0.693763435, 0.693763435, 0.0967579335,
          0.00843056105, 0.00165286195, 0.0380925313, 0.0595501065,
          0.0837118775, 0.105323657, 0.305903137, 0.465054512,
          0.124424897, 0.0715786442, 0.0705489069, 0.465054512,
          0.465054512, 0.465054512, 0.120763339, 0.13590607, 0.434299141,
          0.434299141, 0.331486613, 0.14803201, 0.434299141, 0.434299141,
          0.27631101, 0.094964385, 0.693763435, 0.693763435,
          0.0967579335, 0.00843056105, 0.00165286195, 0.0380925313,
          0.0595501065, 0.0837118775, 0.105323657, 0.305903137,
          0.465054512, 0.124424897, 0.0715786442, 0.0705489069,
          0.465054512, 0.465054512, 0.465054512, 0.120763339, 0.13590607,
          0.434299141, 0.434299141, 0.331486613, 0.14803201, 0.434299141,
          0.434299141, 0.27631101, 0.00741984462, 0.151026726,
          0.696144521, 0.696144521, 0.0239887033, 0., 0.00370775675,
          0.0152335232, 0.0114457291, 0.0785494074, 0.0645631179,
          0.488613844, 0.488613844, 0.209784985, 0.0137161091,
          0.248644397, 0.488613844, 0.40314889, 0.513519943,
          0.0660062209, 0.121949278, 0.33314845, 0.196361676,
          0.106794082, 0.153571129, 0.513519943, 0.513519943,
          0.0487118214, 0.250569046, 0.595246911, 0.595246911,
          0.442067742, 0.155771315, 0.0198057033, 0., 0.013425108,
          0.00617992692, 0.00143989653, 0.223924488, 0.685935199,
          0.685935199, 0.0322660543, 0.0056129978, 0.0151464278,
          0.0255705118, 0.0727275386, 0.0203960352, 0.00516640348,
          0.683687866, 0.683687866, 0.195120022, 0.0356215499,
          0.0328255557, 0.110301375, 0.631523788, 0.22668995,
          0.273836046, 0.229080155, 0.0950689688, 0.0630080476,
          0.0597714372, 0.0248436444, 0.631523788, 0.692545831,
          0.0469925366, 0.0115780579, 0.0123737659, 0.044567138,
          0.00375515502, 0.00546235731, 0.171235755, 0.692545831,
          0.399098366, 0.399098366, 0.373945653, 0.225159705,
          0.00793659687, 0.0949743688, 0.399098366, 0.399098366,
          0.399098366, 0.266452581, 0.316930532, 0.528601706,
          0.528601706, 0.171895579, 0.188909858, 0.347424626,
          0.209529191, 0.186005905, 0.404023945, 0.157704055,
          0.404023945, 0.404023945, 0.404023945, 0.0674832538,
          0.143437356, 0.360261351, 0.404023945, 0.0604563542,
          0.034299802, 0.0557644106, 0.0925196633, 0.0331580229,
          0.0257976782, 0.489650428, 0.606596947, 0.606596947,
          0.120763339, 0.13590607, 0.434299141, 0.434299141, 0.331486613,
          0.14803201, 0.434299141, 0.434299141, 0.27631101, 0.453468204,
          0.0268816836, 0.073680222, 0.575541973, 0.575541973,
          0.228579536, 0.113690361, 0.0248323698, 0.232766241,
          0.138845816, 0.149551913, 0.25572142, 0.419643402, 0.419643402,
          0.419643402, 0.419643402, 0.412079751, 0.120658204,
          0.120763339, 0.13590607, 0.434299141, 0.434299141, 0.331486613,
          0.14803201, 0.434299141, 0.434299141, 0.27631101, 0.453468204,
          0.0268816836, 0.073680222, 0.575541973, 0.575541973,
          0.228579536, 0.113690361, 0.0248323698, 0.232766241,
          0.138845816, 0.149551913, 0.25572142, 0.419643402, 0.419643402,
          0.419643402, 0.419643402, 0.412079751, 0.120658204,
          0.513519943, 0.0660062209, 0.121949278, 0.33314845,
          0.196361676, 0.106794082, 0.153571129, 0.513519943,
          0.513519943, 0.536255777, 0.0786304697, 0.0302723404,
          0.319321156, 0.471761584, 0.207947865, 0.0505630113,
          0.205137014, 0.536255777, 0.370496273, 0.353260547,
          0.203989059, 0.0793034583, 0.370496273, 0.370496273,
          0.370496273, 0.370496273, 0.370496273, 0.0727275386,
          0.0203960352, 0.00516640348, 0.683687866, 0.683687866,
          0.195120022, 0.0356215499, 0.0328255557, 0.110301375,
          0.0783137828, 0.0430291481, 0.0680490211, 0.131065607,
          0.691891372, 0.691891372, 0.0405912958, 0.0300237145,
          0.0576489717, 0.33654812, 0.388780147, 0.388780147,
          0.100382634, 0.388780147, 0.388780147, 0.388780147,
          0.277734816, 0.199719712 ]
      - [ 0.376849771, 0.376849771, 0.153341264, 0.0250180326,
          0.376849771, 0.376849771, 0.376849771, 0.376849771,
          0.346411735, 0.167068347, 0.471461356, 0.471461356,
          0.124945372, 0.471461356, 0.471461356, 0.195643589,
          0.133251622, 0.0814378858, 0.407585949, 0.407585949,
          0.407585949, 0.0987397432, 0.138272405, 0.06633614,
          0.407585949, 0.368368745, 0.403061002, 0.0352968946,
          0.0826042965, 0.194032192, 0.159738556, 0.340901762,
          0.516273916, 0.516273916, 0.516273916, 0.0882012174,
          0.0140511971, 0.674575508, 0.674575508, 0.0639578998,
          0.0208954848, 0.114347532, 0.200652882, 0.156989247,
          0.0213166121, 0.00476608239, 0.541206658, 0.541206658,
          0.0268524606, 0.00751118502, 0.00642162468, 0.541206658,
          0.339173853, 0.000984783052, 0.147671059, 0.126916304,
          0.256519228, 0.133502424, 0.142999142, 0.222088754,
          0.630063117, 0.630063117, 0.0918617845, 0.0255745761,
          0.65228188, 0.65228188, 0.0235453919, 0.0364344493,
          0.021893112, 0.366451979, 0.0723015517, 0.00386250345,
          0.0144012012, 0.549886048, 0.549886048, 0.0174296107,
          0.000196636785, 0.000683566381, 0.549886048, 0.294741988, 0.,
          0.147671059, 0.126916304, 0.256519228, 0.133502424,
          0.142999142, 0.222088754, 0.630063117, 0.630063117,
          0.0918617845, 0.0255745761, 0.65228188, 0.65228188,
          0.0235453919, 0.0364344493, 0.021893112, 0.366451979,
          0.0723015517, 0.00386250345, 0.0144012012, 0.549886048,
          0.549886048, 0.0174296107, 0.000196636785, 0.000683566381,
          0.549886048, 0.294741988, 0., 0.082263872, 0.130986378,
          0.230869949, 0.164741904, 0.0858496353, 0.136154741,
          0.590343416, 0.590343416, 0.408436954, 0.00602652412,
          0.65219301, 0.65219301, 0.00852512475, 0.00432738569,
          0.0476542599, 0.365454435, 0.0822904631, 0.00705589168,
          0.00196741032, 0.601931274, 0.601931274, 0.0153928734,
          0.00157629838, 0.00114580977, 0.472901165, 0.213230073, 0.,
          0.0205810964, 0.0395549983, 0.0549730174, 0.47768268,
          0.47768268, 0.264062017, 0.0881308243, 0.47768268, 0.47768268,
          0.1888901, 0.476330131, 0.476330131, 0.182978615, 0.115597546,
          0.0324542262, 0.0640616864, 0.476330131, 0.476330131,
          0.0434614308, 0.562658131, 0.562658131, 0.145513967,
          0.474605501, 0.157582834, 0.260688245, 0.125950411,
          0.0651548207, 0.407585949, 0.407585949, 0.407585949,
          0.0987397432, 0.138272405, 0.06633614, 0.407585949,
          0.368368745, 0.403061002, 0.141903102, 0.0501035526,
          0.213094428, 0.41041109, 0.414201349, 0.249416992, 0.500803292,
          0.500803292, 0.15207012, 0.0540973209, 0.0894451588,
          0.359074384, 0.740655124, 0.537391901, 0.0353104398,
          0.102985844, 0.0379027203, 0.0457853749, 0.00476608239,
          0.541206658, 0.541206658, 0.0268524606, 0.00751118502,
          0.00642162468, 0.541206658, 0.339173853, 0.000984783052,
          0.00687870011, 0.0655051023, 0.263344586, 0.041374363,
          0.0179232098, 0.00246772496, 0.677295625, 0.677295625,
          0.00721674366, 0.0849943161, 0.237211689, 0.467593879,
          0.467593879, 0.443116605, 0.00347644277, 0.463828832,
          0.281739056, 0.0605774932, 0.0144012012, 0.549886048,
          0.549886048, 0.0174296107, 0.000196636785, 0.000683566381,
          0.549886048, 0.294741988, 0., 0.00942249317, 0.0382603742,
          0.126425833, 0.0351192169, 0.0100163044, 0.00190962653,
          0.697910845, 0.697910845, 0.000668550201, 0.06230212,
          0.423746914, 0.424107701, 0.424107701, 0.302863061,
          0.0281599592, 0.424107701, 0.424107701, 0.0182241984,
          0.0144012012, 0.549886048, 0.549886048, 0.0174296107,
          0.000196636785, 0.000683566381, 0.549886048, 0.294741988, 0.,
          0.00942249317, 0.0382603742, 0.126425833, 0.0351192169,
          0.0100163044, 0.00190962653, 0.697910845, 0.697910845,
          0.000668550201, 0.06230212, 0.423746914, 0.424107701,
          0.424107701, 0.302863061, 0.0281599592, 0.424107701,
          0.424107701, 0.0182241984, 0.00196741032, 0.601931274,
          0.601931274, 0.0153928734, 0.00157629838, 0.00114580977,
          0.472901165, 0.213230073, 0., 0.00984681863, 0.0460436754,
          0.0781615004, 0.00916832872, 0.000314071862, 0.00209402759,
          0.701624811, 0.701624811, 0.00516098272, 0.328840166,
          0.464728892, 0.464728892, 0.0676540136, 0.0230791122,
          0.0196857862, 0.464728892, 0.464728892, 0.133541629,
          0.0434614308, 0.562658131, 0.562658131, 0.145513967,
          0.474605501, 0.157582834, 0.260688245, 0.125950411,
          0.0651548207, 0.195731595, 0.114123933, 0.0615630075,
          0.0148945171, 0.271698952, 0.222417355, 0.636510551,
          0.636510551, 0.0686793178, 0.567086637, 0.567086637,
          0.251414001, 0.0495976135, 0.0240909029, 0.0274230633,
          0.447645664, 0.254275143, 0.13827078 ]
      - [ 0.700392485, 0.700392485, 0.0705756098, 0.00123264315,
          0.00267786346, 0.0350816213, 0.0177261122, 0.00571914203,
          0.0730875209, 0.547457695, 0.547457695, 0.0604914799,
          0.00542932982, 0.125737414, 0.547457695, 0.148610935,
          0.0229498036, 0.230851993, 0.430285841, 0.350015938,
          0.430285841, 0.0819311291, 0.238634005, 0.430285841,
          0.246167973, 0.205671892, 0.388837337, 0.468014568,
          0.468014568, 0.468014568, 0.024503056, 0.0117524397,
          0.222331136, 0.456873238, 0.270008951, 0.0800293609,
          0.387875617, 0.312185287, 0.295405746, 0.0977849811,
          0.291591972, 0.387875617, 0.387875617, 0.339150667,
          0.387875617, 0.350575358, 0.350575358, 0.345283717,
          0.130211487, 0.350575358, 0.350575358, 0.350575358,
          0.350575358, 0.350575358, 0.135224059, 0.594003379,
          0.594003379, 0.329933852, 0.0584210902, 0.107334539,
          0.27299732, 0.215555623, 0.159126967, 0.432203531, 0.137960359,
          0.0363158062, 0.0302727614, 0.432203531, 0.432203531,
          0.430996448, 0.203609005, 0.432203531, 0.462307602,
          0.167447478, 0.0334169231, 0.224015519, 0.462307602,
          0.462307602, 0.0685078725, 0.237565562, 0.462307602,
          0.135224059, 0.594003379, 0.594003379, 0.329933852,
          0.0584210902, 0.107334539, 0.27299732, 0.215555623,
          0.159126967, 0.432203531, 0.137960359, 0.0363158062,
          0.0302727614, 0.432203531, 0.432203531, 0.430996448,
          0.203609005, 0.432203531, 0.462307602, 0.167447478,
          0.0334169231, 0.224015519, 0.462307602, 0.462307602,
          0.0685078725, 0.237565562, 0.462307602, 0.00555817038,
          0.157981545, 0.574388206, 0.574388206, 0.0917995572,
          0.102130264, 0.487868786, 0.229243919, 0.00229904777,
          0.365709662, 0.365709662, 0.365709662, 0.365709662,
          0.194090307, 0.365709662, 0.365709662, 0.365709662,
          0.149900973, 0.425092697, 0.346506029, 0.17534785, 0.287866235,
          0.425092697, 0.425092697, 0.0954424962, 0.173634171,
          0.425092697, 0.00841468386, 0.0616141781, 0.432138115,
          0.671310067, 0.561455965, 0.076785028, 0.115990594,
          0.129712135, 0.0249558184, 0.0703866705, 0.0469062962,
          0.186560363, 0.474704593, 0.474704593, 0.0839044526,
          0.211852819, 0.474704593, 0.474704593, 0.440793663,
          0.133013263, 0.0646271482, 0.384846032, 0.440793663,
          0.440793663, 0.0435096398, 0.215712756, 0.440793663,
          0.430285841, 0.350015938, 0.430285841, 0.0819311291,
          0.238634005, 0.430285841, 0.246167973, 0.205671892,
          0.388837337, 0.227378964, 0.357234508, 0.479709297,
          0.168938816, 0.202767044, 0.183245212, 0.149312854,
          0.479709297, 0.479709297, 0.0248192046, 0.00440036412,
          0.00373352715, 0., 0.00796969421, 0.00716831675, 0.0748886615,
          0.702358902, 0.702358902, 0.350575358, 0.350575358,
          0.345283717, 0.130211487, 0.350575358, 0.350575358,
          0.350575358, 0.350575358, 0.350575358, 0.408639282,
          0.408639282, 0.408639282, 0.408639282, 0.408639282,
          0.121748313, 0.257271707, 0.226392344, 0.169477195,
          0.0565356724, 0.0941519216, 0.178693429, 0.0500750244,
          0.0551406555, 0.0544017814, 0.560328662, 0.560328662,
          0.560328662, 0.462307602, 0.167447478, 0.0334169231,
          0.224015519, 0.462307602, 0.462307602, 0.0685078725,
          0.237565562, 0.462307602, 0.400494874, 0.400494874,
          0.400494874, 0.400494874, 0.400494874, 0.0457749702,
          0.0341234356, 0.174247965, 0.400494874, 0.0970342606,
          0.0804654509, 0.251977593, 0.247062415, 0.0486447774,
          0.441076696, 0.572186887, 0.572186887, 0.0463996455,
          0.462307602, 0.167447478, 0.0334169231, 0.224015519,
          0.462307602, 0.462307602, 0.0685078725, 0.237565562,
          0.462307602, 0.400494874, 0.400494874, 0.400494874,
          0.400494874, 0.400494874, 0.0457749702, 0.0341234356,
          0.174247965, 0.400494874, 0.0970342606, 0.0804654509,
          0.251977593, 0.247062415, 0.0486447774, 0.441076696,
          0.572186887, 0.572186887, 0.0463996455, 0.425092697,
          0.346506029, 0.17534785, 0.287866235, 0.425092697, 0.425092697,
          0.0954424962, 0.173634171, 0.425092697, 0.204448819,
          0.358229309, 0.358229309, 0.358229309, 0.237326667,
          0.358229309, 0.358229309, 0.358229309, 0.358229309,
          0.0344032198, 0.308751971, 0.532493591, 0.179026797,
          0.0814530998, 0.532493591, 0.532493591, 0.0940029472,
          0.000792022038, 0.440793663, 0.133013263, 0.0646271482,
          0.384846032, 0.440793663, 0.440793663, 0.0435096398,
          0.215712756, 0.440793663, 0.481176525, 0.481176525,
          0.109292857, 0.0136082191, 0.481176525, 0.481176525,
          0.22296153, 0.0757304803, 0.0386486836, 0.0608314238,
          0.224598512, 0.087043725, 0.0711856782, 0.552530229,
          0.554842412, 0.554842412, 0.0810503215, 0.010552383 ]
      - [ 0.368228048, 0.557946205, 0.0248017814, 0.00580979325,
          0.0896473974, 0.610050738, 0.40631634, 0.0142753795,
          0.0294732135, 0.130534142, 0.429176897, 0.429176897,
          0.335330069, 0.333913743, 0.429176897, 0.416811615,
          0.164588094, 0.0364615917, 0.139612645, 0.368688434,
          0.368688434, 0.368688434, 0.368688434, 0.275893003,
          0.368688434, 0.368688434, 0.291754991, 0.287374079,
          0.141163513, 0.0305160675, 0.0556261763, 0.139919028,
          0.51880157, 0.51880157, 0.429349571, 0.382169813, 0.276835412,
          0.484816074, 0.484816074, 0.237636358, 0.131511897,
          0.225929752, 0.360546827, 0.364559293, 0.246411324,
          0.344038427, 0.2228522, 0.344038427, 0.344038427, 0.344038427,
          0.344038427, 0.344038427, 0.344038427, 0.344038427,
          0.0469270423, 0.0565892011, 0.0975449979, 0.0991410017,
          0.242988124, 0.481595069, 0.580102384, 0.580102384,
          0.0737860277, 0.408551216, 0.408551216, 0.408551216,
          0.363715589, 0.372949868, 0.359901577, 0.277432323,
          0.0910955742, 0.0948662907, 0.362052828, 0.362052828,
          0.217735827, 0.362052828, 0.362052828, 0.362052828, 0.25474903,
          0.312383294, 0.362052828, 0.0469270423, 0.0565892011,
          0.0975449979, 0.0991410017, 0.242988124, 0.481595069,
          0.580102384, 0.580102384, 0.0737860277, 0.408551216,
          0.408551216, 0.408551216, 0.363715589, 0.372949868,
          0.359901577, 0.277432323, 0.0910955742, 0.0948662907,
          0.362052828, 0.362052828, 0.217735827, 0.362052828,
          0.362052828, 0.362052828, 0.25474903, 0.312383294, 0.362052828,
          0.0683504865, 0.0202131998, 0.0420220383, 0.171003297,
          0.0448424481, 0.0183395762, 0.46939826, 0.6062904, 0.6062904,
          0.313326448, 0.460319102, 0.460319102, 0.460319102,
          0.0384713821, 0.110179007, 0.230537087, 0.399925381,
          0.186655954, 0.34221825, 0.34221825, 0.34221825, 0.34221825,
          0.295400441, 0.34221825, 0.299209207, 0.34221825, 0.34221825,
          0.00896203239, 0.00690878229, 0.22790575, 0.560255229,
          0.0178394224, 0.0148082785, 0.0118710259, 0.560255229,
          0.560255229, 0.357467681, 0.409838349, 0.409838349,
          0.406392962, 0.0802903175, 0.104949631, 0.116776288,
          0.409838349, 0.409838349, 0.348253936, 0.312675923,
          0.348253936, 0.348253936, 0.348253936, 0.348253936,
          0.348253936, 0.223133564, 0.348253936, 0.139612645,
          0.368688434, 0.368688434, 0.368688434, 0.368688434,
          0.275893003, 0.368688434, 0.368688434, 0.291754991,
          0.0813630223, 0.206230968, 0.392152637, 0.392152637,
          0.340520382, 0.386995494, 0.392152637, 0.392152637,
          0.257054329, 0.0709058195, 0.0230374467, 0.490738004,
          0.490738004, 0.0562038869, 0.0369049013, 0.147391468,
          0.490738004, 0.490738004, 0.344038427, 0.2228522, 0.344038427,
          0.344038427, 0.344038427, 0.344038427, 0.344038427,
          0.344038427, 0.344038427, 0.38517341, 0.0476171002,
          0.103490077, 0.304996878, 0.38517341, 0.38517341, 0.38517341,
          0.38517341, 0.38517341, 0.0706853792, 0.133217707, 0.595947504,
          0.595947504, 0.321511388, 0.0702653676, 0.150959566,
          0.293760687, 0.208825678, 0.362052828, 0.362052828,
          0.217735827, 0.362052828, 0.362052828, 0.362052828, 0.25474903,
          0.312383294, 0.362052828, 0.17049174, 0.0518181995,
          0.125000894, 0.417391986, 0.417391986, 0.278158695,
          0.417391986, 0.417391986, 0.417391986, 0.000667965156,
          0.546302259, 0.546302259, 0.209008902, 0.288958132,
          0.320583045, 0.364778548, 0.18552798, 0.0145799201,
          0.362052828, 0.362052828, 0.217735827, 0.362052828,
          0.362052828, 0.362052828, 0.25474903, 0.312383294, 0.362052828,
          0.17049174, 0.0518181995, 0.125000894, 0.417391986,
          0.417391986, 0.278158695, 0.417391986, 0.417391986,
          0.417391986, 0.000667965156, 0.546302259, 0.546302259,
          0.209008902, 0.288958132, 0.320583045, 0.364778548, 0.18552798,
          0.0145799201, 0.34221825, 0.34221825, 0.34221825, 0.34221825,
          0.295400441, 0.34221825, 0.299209207, 0.34221825, 0.34221825,
          0.261899143, 0.39369449, 0.249418855, 0.238659903, 0.105125114,
          0.414366305, 0.414366305, 0.414366305, 0.356309354,
          0.159878612, 0.503142118, 0.503142118, 0.0095037343,
          0.0445927903, 0.0597285815, 0.44292146, 0.503142118,
          0.0901776254, 0.348253936, 0.312675923, 0.348253936,
          0.348253936, 0.348253936, 0.348253936, 0.348253936,
          0.223133564, 0.348253936, 0.306453168, 0.262170285,
          0.0557526052, 0.0819004849, 0.405828297, 0.405828297,
          0.405828297, 0.405828297, 0.405828297, 0.546727657,
          0.546727657, 0.109042227, 0.0211439747, 0.0706877559,
          0.546727657, 0.248495877, 0.101985872, 0.0912219062 ]
      - [ 0.675762117, 0.675762117, 0.00797697622, 0., 0.000353012496,
          0.000142327874, 0.0027843148, 0.0346671045, 0.280485034,
          0.592092097, 0.527720928, 0.00566156674, 0.00485537387,
          0.0199181587, 0.142505795, 0.0180193502, 0.00264206482,
          0.586458445, 0.536484718, 0.0828052834, 0.153388768,
          0.085799545, 0.289397061, 0.536484718, 0.092791073,
          0.0329763852, 0.536484718, 0.691539228, 0.691539228,
          0.116965689, 0.0139478892, 0.0118137887, 0.0732372031,
          0.121797889, 0.0297904145, 0.0392751731, 0.477350086,
          0.451288402, 0.174616218, 0.0582787432, 0.219891831,
          0.477350086, 0.477350086, 0.0725628436, 0.143096879,
          0.374933273, 0.374933273, 0.374933273, 0.0977100879,
          0.374933273, 0.374933273, 0.374933273, 0.287142515,
          0.246589392, 0.137756854, 0.548532903, 0.548532903,
          0.0534273759, 0.024285432, 0.0890407711, 0.522138178,
          0.279553145, 0.107786141, 0.421310276, 0.0971253142,
          0.164995894, 0.0660403818, 0.281816304, 0.421310276,
          0.421310276, 0.406624019, 0.421310276, 0.472767353,
          0.188716918, 0.106909156, 0.134614021, 0.472767353,
          0.393340319, 0.126502082, 0.298105896, 0.472767353,
          0.137756854, 0.548532903, 0.548532903, 0.0534273759,
          0.024285432, 0.0890407711, 0.522138178, 0.279553145,
          0.107786141, 0.421310276, 0.0971253142, 0.164995894,
          0.0660403818, 0.281816304, 0.421310276, 0.421310276,
          0.406624019, 0.421310276, 0.472767353, 0.188716918,
          0.106909156, 0.134614021, 0.472767353, 0.393340319,
          0.126502082, 0.298105896, 0.472767353, 0.0290060639,
          0.256557465, 0.637857914, 0.637857914, 0.0355862603,
          0.0265559573, 0.306431055, 0.114234768, 0.0657415465,
          0.438895196, 0.384826362, 0.255185366, 0.0515243225,
          0.37433511, 0.438895196, 0.438895196, 0.189664274, 0.160511687,
          0.474952191, 0.142540574, 0.0735235289, 0.188583449,
          0.474952191, 0.474952191, 0.0458030812, 0.17190899,
          0.474952191, 0.0100710569, 0.0527573638, 0.672939479,
          0.672939479, 0.177732617, 0.0244908705, 0.206954107,
          0.0977117196, 0.0116617428, 0.0880710483, 0.178505525,
          0.3924613, 0.3924613, 0.361150265, 0.236431375, 0.3924613,
          0.3924613, 0.3924613, 0.422516316, 0.144161358, 0.179246977,
          0.422516316, 0.422516316, 0.422516316, 0.0954436958,
          0.202873498, 0.422516316, 0.536484718, 0.0828052834,
          0.153388768, 0.085799545, 0.289397061, 0.536484718,
          0.092791073, 0.0329763852, 0.536484718, 0.529236972,
          0.0788911059, 0.42563802, 0.126499593, 0.132430643,
          0.118373848, 0.0841112882, 0.438762307, 0.529236972,
          0.140217543, 0.00189920166, 0.00182661274, 0., 0.000275225873,
          0., 0.0457732752, 0.69687885, 0.69687885, 0.374933273,
          0.374933273, 0.374933273, 0.0977100879, 0.374933273,
          0.374933273, 0.374933273, 0.287142515, 0.246589392,
          0.201864377, 0.395924926, 0.396534145, 0.396534145, 0.3902435,
          0.12638393, 0.196954623, 0.346064836, 0.396534145,
          0.0232608728, 0.0433396474, 0.0897833183, 0.0304584671,
          0.0311551988, 0.0173410214, 0.226699919, 0.681587636,
          0.681587636, 0.472767353, 0.188716918, 0.106909156,
          0.134614021, 0.472767353, 0.393340319, 0.126502082,
          0.298105896, 0.472767353, 0.408292145, 0.408292145,
          0.408292145, 0.408292145, 0.408292145, 0.0887874812,
          0.100382805, 0.161473036, 0.344057322, 0.137718469,
          0.251845092, 0.352386296, 0.102747075, 0.0391564667,
          0.0923674703, 0.597913444, 0.597913444, 0.227680221,
          0.472767353, 0.188716918, 0.106909156, 0.134614021,
          0.472767353, 0.393340319, 0.126502082, 0.298105896,
          0.472767353, 0.408292145, 0.408292145, 0.408292145,
          0.408292145, 0.408292145, 0.0887874812, 0.100382805,
          0.161473036, 0.344057322, 0.137718469, 0.251845092,
          0.352386296, 0.102747075, 0.0391564667, 0.0923674703,
          0.597913444, 0.597913444, 0.227680221, 0.474952191,
          0.142540574, 0.0735235289, 0.188583449, 0.474952191,
          0.474952191, 0.0458030812, 0.17190899, 0.474952191,
          0.224147037, 0.141658723, 0.405357599, 0.405357599,
          0.405357599, 0.0664739534, 0.3156721, 0.405357599, 0.405357599,
          0.00545182731, 0.133914828, 0.510059714, 0.406085759,
          0.0381134786, 0.510059714, 0.510059714, 0.172781661,
          0.0157710593, 0.422516316, 0.144161358, 0.179246977,
          0.422516316, 0.422516316, 0.422516316, 0.0954436958,
          0.202873498, 0.422516316, 0.389945418, 0.389945418,
          0.389945418, 0.123743057, 0.389945418, 0.389945418,
          0.389945418, 0.229548484, 0.125518724, 0.0569344871,
          0.334902734, 0.349191308, 0.061921645, 0.138705805,
          0.605573177, 0.605573177, 0.0103039946, 0. ]
      - [ 0.192913488, 0.44560051, 0.452979237, 0.103367008, 0.159295142,
          0.2624138, 0.452979237, 0.452979237, 0.198012039, 0.543658733,
          0.191019282, 0.103402838, 0.00912084244, 0.0218095258,
          0.111581296, 0.543658733, 0.483706117, 0.330575198,
          0.604899585, 0.420983434, 0.178632662, 0.00578024983,
          0.0142205525, 0.0559294894, 0.122318298, 0.186254919,
          0.604899585, 0.415443271, 0.453547299, 0.209538102,
          0.106791623, 0.375599235, 0.453547299, 0.453547299,
          0.0940467194, 0.0230380315, 0.469868332, 0.469868332,
          0.0270082261, 0.026578363, 0.179867327, 0.469868332,
          0.461303353, 0.195617452, 0.219369635, 0.423770636,
          0.165341273, 0.187695608, 0.240562439, 0.423770636,
          0.423770636, 0.316025168, 0.239021152, 0.423770636,
          0.119359799, 0.539210021, 0.539210021, 0.0524590723,
          0.014682427, 0.292794883, 0.539210021, 0.139143392,
          0.00829880685, 0.391631186, 0.396716177, 0.117244668,
          0.0408363603, 0.200821638, 0.396716177, 0.396716177,
          0.396716177, 0.396716177, 0.410270929, 0.124221221,
          0.202545002, 0.301221937, 0.410270929, 0.410270929,
          0.278289169, 0.313013881, 0.410270929, 0.119359799,
          0.539210021, 0.539210021, 0.0524590723, 0.014682427,
          0.292794883, 0.539210021, 0.139143392, 0.00829880685,
          0.391631186, 0.396716177, 0.117244668, 0.0408363603,
          0.200821638, 0.396716177, 0.396716177, 0.396716177,
          0.396716177, 0.410270929, 0.124221221, 0.202545002,
          0.301221937, 0.410270929, 0.410270929, 0.278289169,
          0.313013881, 0.410270929, 0.0122385593, 0.235850617,
          0.484652907, 0.484652907, 0.046950046, 0.011948185, 0.35954985,
          0.484652907, 0.321085066, 0.17726177, 0.170301482, 0.416042775,
          0.416042775, 0.210609451, 0.416042775, 0.416042775,
          0.416042775, 0.160016805, 0.404492229, 0.280427307,
          0.255198985, 0.341441423, 0.404492229, 0.404492229,
          0.116490521, 0.259971023, 0.404492229, 0.0037043863,
          0.0115311388, 0.160887614, 0.431194276, 0.431194276,
          0.215360209, 0.423753828, 0.431194276, 0.431194276,
          0.0161141325, 0.0308952127, 0.168616071, 0.45214662,
          0.45214662, 0.200470015, 0.45214662, 0.45214662, 0.328486949,
          0.143457398, 0.170551628, 0.241117194, 0.514514148,
          0.514514148, 0.514514148, 0.179914266, 0.210884392, 0.1266509,
          0.604899585, 0.420983434, 0.178632662, 0.00578024983,
          0.0142205525, 0.0559294894, 0.122318298, 0.186254919,
          0.604899585, 0.399979979, 0.399979979, 0.399979979,
          0.193518177, 0.0355501994, 0.281753212, 0.399979979,
          0.279260039, 0.399979979, 0.0707669705, 0.493109375,
          0.493109375, 0.493109375, 0.125562251, 0.0766544789,
          0.364017636, 0.168281183, 0.279512644, 0.423770636,
          0.165341273, 0.187695608, 0.240562439, 0.423770636,
          0.423770636, 0.316025168, 0.239021152, 0.423770636,
          0.386423677, 0.298594296, 0.386423677, 0.386423677,
          0.200939894, 0.245580703, 0.273613513, 0.366247088,
          0.386423677, 0.122877762, 0.0858116224, 0.443176091,
          0.50210464, 0.135132983, 0.0177653655, 0.0348410048,
          0.50210464, 0.50210464, 0.410270929, 0.124221221, 0.202545002,
          0.301221937, 0.410270929, 0.410270929, 0.278289169,
          0.313013881, 0.410270929, 0.38063848, 0.38063848, 0.38063848,
          0.38063848, 0.35289076, 0.210504845, 0.265721083, 0.179769665,
          0.38063848, 0.15348956, 0.28701666, 0.457953125, 0.342024058,
          0.0545952767, 0.133154333, 0.462289959, 0.462289959,
          0.338539094, 0.410270929, 0.124221221, 0.202545002,
          0.301221937, 0.410270929, 0.410270929, 0.278289169,
          0.313013881, 0.410270929, 0.38063848, 0.38063848, 0.38063848,
          0.38063848, 0.35289076, 0.210504845, 0.265721083, 0.179769665,
          0.38063848, 0.15348956, 0.28701666, 0.457953125, 0.342024058,
          0.0545952767, 0.133154333, 0.462289959, 0.462289959,
          0.338539094, 0.404492229, 0.280427307, 0.255198985,
          0.341441423, 0.404492229, 0.404492229, 0.116490521,
          0.259971023, 0.404492229, 0.345303684, 0.345303684,
          0.345303684, 0.345303684, 0.345303684, 0.335862726,
          0.221593782, 0.345303684, 0.345303684, 0.184687316,
          0.507284641, 0.387293935, 0.16016452, 0.08306247, 0.507284641,
          0.507284641, 0.0764420629, 0.020469917, 0.143457398,
          0.170551628, 0.241117194, 0.514514148, 0.514514148,
          0.514514148, 0.179914266, 0.210884392, 0.1266509, 0.4441576,
          0.4441576, 0.35773921, 0.183400527, 0.4441576, 0.4441576,
          0.105331339, 0.10325817, 0.151952267, 0.531227708, 0.531227708,
          0.209473699, 0.0439138338, 0.270585209, 0.531227708,
          0.161253825, 0.00972288661, 0.0544498004 ]
      - [ 0.528764307, 0.528764307, 0.290219039, 0.058892481,
          0.216390252, 0.528764307, 0.132712573, 0.0392152891,
          0.047684975, 0.437968791, 0.437968791, 0.101607978,
          0.0162184089, 0.143364385, 0.428744137, 0.115742631,
          0.437968791, 0.437968791, 0.0874660686, 0.0468543358,
          0.0582314953, 0.0633639097, 0.300926268, 0.209439889,
          0.173235655, 0.637163579, 0.637163579, 0.332434833,
          0.479307562, 0.479307562, 0.107134305, 0.369692445,
          0.479307562, 0.207209736, 0.0581684224, 0.0319822133,
          0.232121274, 0.392530799, 0.392530799, 0.336406857,
          0.392530799, 0.392530799, 0.392530799, 0.231768355,
          0.0700716972, 0.00396865979, 0.0223279409, 0.126862422,
          0.464286238, 0.464286238, 0.116645344, 0.464286238,
          0.464286238, 0.320782155, 0.0545068756, 0.456133932,
          0.456133932, 0.230901986, 0.456133932, 0.456133932,
          0.303204596, 0.120792001, 0.020018898, 0.0141885141,
          0.500627816, 0.500627816, 0.110929057, 0.132779434,
          0.150780857, 0.500627816, 0.435418397, 0.0255838651,
          0.199588642, 0.00280372682, 0.155303717, 0.448695421,
          0.448695421, 0.220690772, 0.448695421, 0.448695421,
          0.278461277, 0.0545068756, 0.456133932, 0.456133932,
          0.230901986, 0.456133932, 0.456133932, 0.303204596,
          0.120792001, 0.020018898, 0.0141885141, 0.500627816,
          0.500627816, 0.110929057, 0.132779434, 0.150780857,
          0.500627816, 0.435418397, 0.0255838651, 0.199588642,
          0.00280372682, 0.155303717, 0.448695421, 0.448695421,
          0.220690772, 0.448695421, 0.448695421, 0.278461277,
          0.044531852, 0.44653663, 0.44653663, 0.390999705, 0.138707548,
          0.0810912028, 0.389069021, 0.44653663, 0.255539715,
          0.0880635604, 0.425597727, 0.425597727, 0.425597727,
          0.425597727, 0.0180628281, 0.356126487, 0.29312098,
          0.224471271, 0.503804088, 0.000279687898, 0.0065939012,
          0.0812623054, 0.503804088, 0.046687711, 0.312689722,
          0.356245577, 0.503804088, 0.0499106646, 0.142106876,
          0.471537083, 0.471537083, 0.209891692, 0.0676486939,
          0.185970545, 0.471537083, 0.471537083, 0.105121583,
          0.036229033, 0.413343906, 0.540053785, 0.540053785,
          0.194554269, 0.0617343448, 0.238661319, 0.359795481,
          0.131154031, 0.0152788954, 0.0139549514, 0.259449869,
          0.905212998, 0.188872695, 0.0505811498, 0.0491133407,
          0.214407265, 0.0874660686, 0.0468543358, 0.0582314953,
          0.0633639097, 0.300926268, 0.209439889, 0.173235655,
          0.637163579, 0.637163579, 0.0163794477, 0.020043062,
          0.417327523, 0.468173414, 0.468173414, 0.157776967,
          0.296436548, 0.468173414, 0.223974004, 0.105266586,
          0.0430721007, 0.341511875, 0.559380472, 0.559380472,
          0.0766173154, 0.224344134, 0.37636134, 0.202943668,
          0.00396865979, 0.0223279409, 0.126862422, 0.464286238,
          0.464286238, 0.116645344, 0.464286238, 0.464286238,
          0.320782155, 0.00887558702, 0.0520935468, 0.0775712505,
          0.0958982855, 0.1472743, 0.09119495, 0.678521276, 0.678521276,
          0.15630661, 0.0719577521, 0.0144997891, 0.549781501,
          0.549781501, 0.438005358, 0.153970212, 0.340176344,
          0.185013339, 0.138191417, 0.199588642, 0.00280372682,
          0.155303717, 0.448695421, 0.448695421, 0.220690772,
          0.448695421, 0.448695421, 0.278461277, 0.501715362,
          0.00556649733, 0.0375487059, 0.108470023, 0.387854278,
          0.188171476, 0.501715362, 0.20196113, 0.501715362, 0.659324706,
          0.0127006965, 0.10170117, 0.0906732231, 0.199437141,
          0.11657875, 0.10650418, 0.201406538, 0.659324706, 0.199588642,
          0.00280372682, 0.155303717, 0.448695421, 0.448695421,
          0.220690772, 0.448695421, 0.448695421, 0.278461277,
          0.501715362, 0.00556649733, 0.0375487059, 0.108470023,
          0.387854278, 0.188171476, 0.501715362, 0.20196113, 0.501715362,
          0.659324706, 0.0127006965, 0.10170117, 0.0906732231,
          0.199437141, 0.11657875, 0.10650418, 0.201406538, 0.659324706,
          0.503804088, 0.000279687898, 0.0065939012, 0.0812623054,
          0.503804088, 0.046687711, 0.312689722, 0.356245577,
          0.503804088, 0.575333953, 0.0121217715, 0.000339209684,
          0.0205622409, 0.575333953, 0.0248207022, 0.00230768067,
          0.00602516253, 0.575333953, 0.494244784, 0.0274089519,
          0.00626584515, 0.0314797275, 0.494244784, 0.159693062,
          0.34902215, 0.336348146, 0.494244784, 0.131154031,
          0.0152788954, 0.0139549514, 0.259449869, 0.905212998,
          0.188872695, 0.0505811498, 0.0491133407, 0.214407265,
          0.315042645, 0.111016646, 0.00189367903, 0.120156698,
          0.903767288, 0.0958921313, 0.0130085461, 0.0241639633,
          0.195502535, 0.495298594, 0.495298594, 0.0251490064,
          0.0992928743, 0.495298594, 0.422538757, 0.240839019,
          0.0589111745, 0.0926645696 ]
      - [ 0.431021988, 0.431021988, 0.36950931, 0.0970835611,
          0.240079284, 0.431021988, 0.166840106, 0.14539142, 0.431021988,
          0.434928477, 0.434928477, 0.307924956, 0.168737903,
          0.166305497, 0.0995961428, 0.279530227, 0.434928477,
          0.434928477, 0.36591053, 0.245717749, 0.36591053, 0.36591053,
          0.353907377, 0.0858691558, 0.36591053, 0.36591053, 0.36591053,
          0.461202234, 0.563270986, 0.563270986, 0.235505879, 0.1694832,
          0.187674418, 0.0613809153, 0.0902991518, 0.12565203,
          0.404006153, 0.404006153, 0.0785887912, 0.0394915156,
          0.0943530574, 0.404006153, 0.404006153, 0.404006153,
          0.404006153, 0.397893995, 0.397893995, 0.225260392,
          0.160686567, 0.191508546, 0.301975191, 0.397893995,
          0.397893995, 0.397893995, 0.381989062, 0.547674358,
          0.547674358, 0.162845358, 0.123974927, 0.221290737,
          0.148309588, 0.103683934, 0.353718251, 0.375318259,
          0.375318259, 0.281182051, 0.0913703367, 0.287605941,
          0.375318259, 0.375318259, 0.349001795, 0.375318259,
          0.368940443, 0.368940443, 0.164640114, 0.128017098,
          0.368940443, 0.368940443, 0.368940443, 0.368940443,
          0.368940443, 0.381989062, 0.547674358, 0.547674358,
          0.162845358, 0.123974927, 0.221290737, 0.148309588,
          0.103683934, 0.353718251, 0.375318259, 0.375318259,
          0.281182051, 0.0913703367, 0.287605941, 0.375318259,
          0.375318259, 0.349001795, 0.375318259, 0.368940443,
          0.368940443, 0.164640114, 0.128017098, 0.368940443,
          0.368940443, 0.368940443, 0.368940443, 0.368940443,
          0.314510643, 0.418121189, 0.418121189, 0.418121189,
          0.262923449, 0.400063127, 0.337513864, 0.11940261, 0.122794271,
          0.430439711, 0.430439711, 0.256632149, 0.223192379,
          0.332044482, 0.430439711, 0.430439711, 0.0965831578,
          0.139032215, 0.369808078, 0.369808078, 0.103718586, 0.25117141,
          0.369808078, 0.369808078, 0.343874425, 0.347017378,
          0.369808078, 0.0358708873, 0.177550659, 0.487506121,
          0.487506121, 0.487506121, 0.487506121, 0.0917279199,
          0.0540007949, 0.0184613336, 0.311625093, 0.414871037,
          0.414871037, 0.414871037, 0.414871037, 0.414871037,
          0.152512729, 0.109385855, 0.0541304201, 0.353944391,
          0.353944391, 0.30509755, 0.353944391, 0.353944391, 0.353944391,
          0.33535102, 0.353944391, 0.198138699, 0.36591053, 0.245717749,
          0.36591053, 0.36591053, 0.353907377, 0.0858691558, 0.36591053,
          0.36591053, 0.36591053, 0.145793468, 0.0959637612, 0.201226756,
          0.517811596, 0.226647288, 0.0565690845, 0.254786134,
          0.517811596, 0.517811596, 0.177666724, 0.0595754012,
          0.0414626263, 0.0744857341, 0.13601394, 0.103408486,
          0.229515135, 0.659229219, 0.659229219, 0.397893995,
          0.397893995, 0.225260392, 0.160686567, 0.191508546,
          0.301975191, 0.397893995, 0.397893995, 0.397893995,
          0.369968027, 0.126347229, 0.366620183, 0.369968027,
          0.369968027, 0.227821946, 0.331127286, 0.369968027,
          0.369968027, 0.185853273, 0.0129969092, 0.378645122,
          0.516776085, 0.0718735158, 0.00631599501, 0.101873353,
          0.516776085, 0.516776085, 0.368940443, 0.368940443,
          0.164640114, 0.128017098, 0.368940443, 0.368940443,
          0.368940443, 0.368940443, 0.368940443, 0.380378991,
          0.380378991, 0.146835864, 0.161383852, 0.283664167,
          0.380378991, 0.380378991, 0.380378991, 0.380378991,
          0.309843898, 0.237648144, 0.287310928, 0.410719961,
          0.188972175, 0.224489436, 0.410719961, 0.410719961,
          0.410719961, 0.368940443, 0.368940443, 0.164640114,
          0.128017098, 0.368940443, 0.368940443, 0.368940443,
          0.368940443, 0.368940443, 0.380378991, 0.380378991,
          0.146835864, 0.161383852, 0.283664167, 0.380378991,
          0.380378991, 0.380378991, 0.380378991, 0.309843898,
          0.237648144, 0.287310928, 0.410719961, 0.188972175,
          0.224489436, 0.410719961, 0.410719961, 0.410719961,
          0.369808078, 0.369808078, 0.103718586, 0.25117141, 0.369808078,
          0.369808078, 0.343874425, 0.347017378, 0.369808078,
          0.377457976, 0.377457976, 0.2041713, 0.343391806, 0.162015736,
          0.313054949, 0.377457976, 0.377457976, 0.377457976,
          0.287492692, 0.277511418, 0.218574926, 0.429296404,
          0.0833597928, 0.219492704, 0.429296404, 0.429296404,
          0.424570262, 0.353944391, 0.353944391, 0.30509755, 0.353944391,
          0.353944391, 0.353944391, 0.33535102, 0.353944391, 0.198138699,
          0.223663136, 0.351579636, 0.316331446, 0.351579636,
          0.351579636, 0.351579636, 0.323646724, 0.351579636,
          0.351579636, 0.381933421, 0.197455019, 0.313512266,
          0.232957006, 0.274356216, 0.381933421, 0.381933421,
          0.381933421, 0.381933421 ]
      - [ 0.353898823, 0.353898823, 0.353898823, 0.316441447,
          0.353898823, 0.353898823, 0.353898823, 0.14006573, 0.353898823,
          0.258617669, 0.261507899, 0.360487968, 0.285341054,
          0.360487968, 0.360487968, 0.360487968, 0.360487968,
          0.360487968, 0.431765139, 0.136488333, 0.0468441322,
          0.431765139, 0.431765139, 0.431765139, 0.0698740482,
          0.194615945, 0.431765139, 0.336020142, 0.336020142,
          0.336020142, 0.336020142, 0.336020142, 0.336020142,
          0.336020142, 0.335087806, 0.30658111, 0.355355084, 0.221193388,
          0.355355084, 0.252155781, 0.355355084, 0.355355084,
          0.355355084, 0.355355084, 0.355355084, 0.444412798,
          0.194936886, 0.0647670478, 0.28556785, 0.444412798,
          0.444412798, 0.193130538, 0.210965261, 0.444412798,
          0.234979913, 0.350615114, 0.350615114, 0.350615114,
          0.284191251, 0.350615114, 0.350615114, 0.350615114,
          0.350615114, 0.313608825, 0.354256868, 0.354256868,
          0.185233489, 0.342759013, 0.354256868, 0.354256868, 0.34471029,
          0.354256868, 0.357713133, 0.290836513, 0.32870689, 0.189841926,
          0.357713133, 0.357713133, 0.357713133, 0.357713133,
          0.357713133, 0.234979913, 0.350615114, 0.350615114,
          0.350615114, 0.284191251, 0.350615114, 0.350615114,
          0.350615114, 0.350615114, 0.313608825, 0.354256868,
          0.354256868, 0.185233489, 0.342759013, 0.354256868,
          0.354256868, 0.34471029, 0.354256868, 0.357713133, 0.290836513,
          0.32870689, 0.189841926, 0.357713133, 0.357713133, 0.357713133,
          0.357713133, 0.357713133, 0.354861766, 0.354861766,
          0.354861766, 0.354861766, 0.255465031, 0.222944364,
          0.354861766, 0.354861766, 0.354861766, 0.36567536, 0.36567536,
          0.177730963, 0.169496447, 0.36567536, 0.36567536, 0.36567536,
          0.36567536, 0.36567536, 0.484446615, 0.0905862302,
          0.0567848161, 0.278104097, 0.484446615, 0.308546424,
          0.297402471, 0.136654243, 0.484446615, 0.331096053,
          0.212194473, 0.434508085, 0.434508085, 0.308918744,
          0.310699552, 0.43433401, 0.173208088, 0.229786873, 0.208333611,
          0.25228259, 0.367255777, 0.367255777, 0.282879144, 0.367255777,
          0.367255777, 0.367255777, 0.367255777, 0.389634013,
          0.0754658282, 0.142512724, 0.389634013, 0.389634013,
          0.371703506, 0.283923417, 0.379562825, 0.389634013,
          0.431765139, 0.136488333, 0.0468441322, 0.431765139,
          0.431765139, 0.431765139, 0.0698740482, 0.194615945,
          0.431765139, 0.427879572, 0.100398146, 0.139793769,
          0.427879572, 0.427879572, 0.427879572, 0.116267741,
          0.192823634, 0.427879572, 0.410452366, 0.410452366,
          0.410452366, 0.410452366, 0.410452366, 0.159778148,
          0.111972176, 0.247532606, 0.232819244, 0.444412798,
          0.194936886, 0.0647670478, 0.28556785, 0.444412798,
          0.444412798, 0.193130538, 0.210965261, 0.444412798,
          0.384486437, 0.161239937, 0.147269785, 0.384486437,
          0.384486437, 0.384486437, 0.276054204, 0.364852071,
          0.384486437, 0.398643225, 0.398643225, 0.398643225,
          0.398643225, 0.398643225, 0.06954211, 0.107848324, 0.192727745,
          0.384479105, 0.357713133, 0.290836513, 0.32870689, 0.189841926,
          0.357713133, 0.357713133, 0.357713133, 0.357713133,
          0.357713133, 0.393953949, 0.290949583, 0.261499763,
          0.393953949, 0.393953949, 0.393953949, 0.156716749,
          0.206087366, 0.393953949, 0.413020581, 0.413020581,
          0.413020581, 0.413020581, 0.242714629, 0.107267879,
          0.337848157, 0.271371186, 0.235222265, 0.357713133,
          0.290836513, 0.32870689, 0.189841926, 0.357713133, 0.357713133,
          0.357713133, 0.357713133, 0.357713133, 0.393953949,
          0.290949583, 0.261499763, 0.393953949, 0.393953949,
          0.393953949, 0.156716749, 0.206087366, 0.393953949,
          0.413020581, 0.413020581, 0.413020581, 0.413020581,
          0.242714629, 0.107267879, 0.337848157, 0.271371186,
          0.235222265, 0.484446615, 0.0905862302, 0.0567848161,
          0.278104097, 0.484446615, 0.308546424, 0.297402471,
          0.136654243, 0.484446615, 0.475512177, 0.163683057,
          0.195881173, 0.341688424, 0.475512177, 0.282849938,
          0.129236847, 0.195694059, 0.475512177, 0.417893559,
          0.417893559, 0.417893559, 0.417893559, 0.34010008,
          0.0841670707, 0.255767971, 0.297775298, 0.142989039,
          0.389634013, 0.0754658282, 0.142512724, 0.389634013,
          0.389634013, 0.371703506, 0.283923417, 0.379562825,
          0.389634013, 0.398751587, 0.0974898413, 0.265478581,
          0.355228782, 0.398751587, 0.351341695, 0.174337089,
          0.398751587, 0.398751587, 0.288429976, 0.461255223,
          0.461255223, 0.461255223, 0.238933831, 0.111842245,
          0.221077904, 0.324982196, 0.223259762 ]
      - [ 0.138694674, 0.130713537, 0.533281147, 0.240379453, 0.1352043,
          0.0784948096, 0.533281147, 0.533281147, 0.151531711,
          0.19785288, 0.153174192, 0.550968409, 0.550968409, 0.550968409,
          0.11914859, 0.025623085, 0.0104308706, 0.078928031,
          0.444271773, 0.0296327565, 0.121310383, 0.445443541,
          0.445443541, 0.445443541, 0.128805444, 0.0465394929,
          0.41056326, 0.212604389, 0.440771669, 0.440771669, 0.131599918,
          0.221163139, 0.119913734, 0.440771669, 0.440771669,
          0.304412216, 0.640428901, 0.640428901, 0.335941494,
          0.0177314524, 0.0763614103, 0.184082523, 0.0201366097,
          0.0106175467, 0.141070902, 0.482181996, 0.384282082,
          0.0178193431, 0.121823661, 0.482181996, 0.361843497,
          0.0155297816, 0.0606829077, 0.482181996, 0.202127829,
          0.41517368, 0.41517368, 0.176135048, 0.245317549, 0.044123102,
          0.41517368, 0.41517368, 0.41517368, 0.174023911, 0.477250427,
          0.477250427, 0.0155091649, 0.0757572427, 0.477250427,
          0.477250427, 0.218710795, 0.00792574696, 0.0544113815,
          0.0783473849, 0.022567464, 0.33613956, 0.539420485,
          0.539420485, 0.515672982, 0.14090693, 0.0655194297,
          0.202127829, 0.41517368, 0.41517368, 0.176135048, 0.245317549,
          0.044123102, 0.41517368, 0.41517368, 0.41517368, 0.174023911,
          0.477250427, 0.477250427, 0.0155091649, 0.0757572427,
          0.477250427, 0.477250427, 0.218710795, 0.00792574696,
          0.0544113815, 0.0783473849, 0.022567464, 0.33613956,
          0.539420485, 0.539420485, 0.515672982, 0.14090693,
          0.0655194297, 0.049253948, 0.239669874, 0.454087794,
          0.454087794, 0.178735867, 0.0399502069, 0.27797699,
          0.454087794, 0.454087794, 0.00966513436, 0.303234726,
          0.462686539, 0.462686539, 0.0109001901, 0.0732421577,
          0.462686539, 0.462686539, 0.203801587, 0.504293382,
          0.0314170793, 0.0648898482, 0.054304868, 0.0331382677,
          0.0883300304, 0.463660449, 0.504293382, 0.504293382,
          0.0264335144, 0.14560616, 0.446380585, 0.446380585, 0.37944892,
          0.0607678443, 0.170131266, 0.446380585, 0.446380585,
          0.0127955973, 0.0695079044, 0.49308762, 0.49308762,
          0.129393488, 0.00604972569, 0.0275513809, 0.49308762,
          0.49308762, 0.479354143, 0.0274359528, 0.0822030753,
          0.479354143, 0.479354143, 0.0850476027, 0.0108808205,
          0.247444838, 0.479354143, 0.444271773, 0.0296327565,
          0.121310383, 0.445443541, 0.445443541, 0.445443541,
          0.128805444, 0.0465394929, 0.41056326, 0.177008212,
          0.0300994124, 0.0925614834, 0.501455486, 0.501455486,
          0.501455486, 0.254882842, 0.0845201612, 0.357357711,
          0.0449230447, 0.0254783705, 0.0458166413, 0.0556849428,
          0.495034218, 0.495034218, 0.495034218, 0.495034218,
          0.0833844543, 0.482181996, 0.384282082, 0.0178193431,
          0.121823661, 0.482181996, 0.361843497, 0.0155297816,
          0.0606829077, 0.482181996, 0.351861566, 0.0205044057,
          0.0347482972, 0.353185743, 0.442280084, 0.0366052762,
          0.0536089242, 0.521913588, 0.521913588, 0.0840909183,
          0.0299179219, 0.0585015528, 0.053238973, 0.0354321823,
          0.00537036965, 0.542182028, 0.585102022, 0.585102022,
          0.0544113815, 0.0783473849, 0.022567464, 0.33613956,
          0.539420485, 0.539420485, 0.515672982, 0.14090693,
          0.0655194297, 0.0149822989, 0.14343442, 0.470125049,
          0.470125049, 0.470125049, 0.0286179371, 0.244651914,
          0.470125049, 0.172518402, 0.0147953806, 0.096109435,
          0.478798389, 0.242109418, 0.00785205327, 0.0129235582,
          0.576305866, 0.576305866, 0.180107996, 0.0544113815,
          0.0783473849, 0.022567464, 0.33613956, 0.539420485,
          0.539420485, 0.515672982, 0.14090693, 0.0655194297,
          0.0149822989, 0.14343442, 0.470125049, 0.470125049,
          0.470125049, 0.0286179371, 0.244651914, 0.470125049,
          0.172518402, 0.0147953806, 0.096109435, 0.478798389,
          0.242109418, 0.00785205327, 0.0129235582, 0.576305866,
          0.576305866, 0.180107996, 0.504293382, 0.0314170793,
          0.0648898482, 0.054304868, 0.0331382677, 0.0883300304,
          0.463660449, 0.504293382, 0.504293382, 0.48325339, 0.48325339,
          0.48325339, 0.127537563, 0.011161766, 0.153439522, 0.444659472,
          0.118777707, 0.206899747, 0.123502031, 0.435800225,
          0.445322096, 0.0250497758, 0.013875681, 0.440904468,
          0.445322096, 0.445322096, 0.0150008136, 0.479354143,
          0.0274359528, 0.0822030753, 0.479354143, 0.479354143,
          0.0850476027, 0.0108808205, 0.247444838, 0.479354143,
          0.421964079, 0.421964079, 0.0403750837, 0.0513861217,
          0.421964079, 0.421964079, 0.381465495, 0.0296567529,
          0.364560097, 0.474657983, 0.474657983, 0.139386952,
          0.0319433138, 0.160467789, 0.474657983, 0.474657983,
          0.107167147, 0.190720871 ]
      - [ 0.242147192, 0.466869175, 0.466869175, 0.251146048,
          0.0324945636, 0.0165536329, 0.020731397, 0.466869175,
          0.466869175, 0.00745267933, 0.0840724483, 0.176800668,
          0.454397827, 0.347429574, 0.10228458, 0.454397827, 0.454397827,
          0.454397827, 0.0212702174, 0.523773611, 0.523773611,
          0.523773611, 0.0551465005, 0.0368039608, 0.141988128,
          0.372155875, 0.0907960013, 0.0289377552, 0.668702483,
          0.668702483, 0.226379171, 0.0427765958, 0.0140405819,
          0.0262630749, 0.144689038, 0.152518243, 0.0116331028,
          0.0397935137, 0.0883359462, 0.0928403512, 0.0388208292,
          0.14847967, 0.658827245, 0.658827245, 0.289173603, 0.212907448,
          0.265460849, 0.436808497, 0.436808497, 0.169669807,
          0.0783429444, 0.436808497, 0.436808497, 0.285841703,
          0.0466136113, 0.181686446, 0.685426891, 0.685426891,
          0.0514126197, 0.0355846174, 0.0671747103, 0.0882957503,
          0.0462225713, 0.046591185, 0.0203284901, 0.0787075534,
          0.0550905615, 0.0329793058, 0.0456472412, 0.641124129,
          0.641124129, 0.395643473, 0.383340359, 0.11966148, 0.304668754,
          0.40217182, 0.355981857, 0.113310397, 0.342201084, 0.40217182,
          0.40217182, 0.0466136113, 0.181686446, 0.685426891,
          0.685426891, 0.0514126197, 0.0355846174, 0.0671747103,
          0.0882957503, 0.0462225713, 0.046591185, 0.0203284901,
          0.0787075534, 0.0550905615, 0.0329793058, 0.0456472412,
          0.641124129, 0.641124129, 0.395643473, 0.383340359, 0.11966148,
          0.304668754, 0.40217182, 0.355981857, 0.113310397, 0.342201084,
          0.40217182, 0.40217182, 0.0144322114, 0.0766959637,
          0.502376437, 0.502376437, 0.0472920761, 0.0148739852,
          0.0437388718, 0.502376437, 0.47683847, 0.037555445,
          0.0512811206, 0.53864634, 0.633914411, 0.154607877,
          0.0657097995, 0.12332473, 0.402329385, 0.303882003,
          0.575706661, 0.0152799729, 0.00622018008, 0.120983317,
          0.11141786, 0.0195219349, 0.0329685733, 0.550076246,
          0.575706661, 0.0307424162, 0.192654163, 0.458056837,
          0.458056837, 0.284367204, 0.0872300714, 0.172121704,
          0.458056837, 0.458056837, 0.00421059551, 0.0113413585,
          0.0628529936, 0.52229923, 0.417225033, 0.0138220266,
          0.0414370671, 0.52229923, 0.518757403, 0.0279403944,
          0.00418645376, 0.00214002491, 0.657285154, 0.657285154,
          0.0277557112, 0.0116240475, 0.0779242367, 0.348726302,
          0.0212702174, 0.523773611, 0.523773611, 0.523773611,
          0.0551465005, 0.0368039608, 0.141988128, 0.372155875,
          0.0907960013, 0.441251934, 0.244321361, 0.4661735, 0.4661735,
          0.16585122, 0.0186891779, 0.188156262, 0.160422996, 0.4661735,
          0.559937716, 0.0184053853, 0.0734901056, 0.139641404,
          0.0994869992, 0.0561158583, 0.39222151, 0.418598026,
          0.559937716, 0.212907448, 0.265460849, 0.436808497,
          0.436808497, 0.169669807, 0.0783429444, 0.436808497,
          0.436808497, 0.285841703, 0.0696134269, 0.0416813716,
          0.232384622, 0.84567672, 0.280279666, 0.0661189854,
          0.0955197439, 0.233456552, 0.263156831, 0.0767730698,
          0.00169164152, 0.084366791, 0.687426269, 0.687426269,
          0.0781845748, 0.0697974935, 0.0937256292, 0.123466507,
          0.383340359, 0.11966148, 0.304668754, 0.40217182, 0.355981857,
          0.113310397, 0.342201084, 0.40217182, 0.40217182, 0.463037491,
          0.0381041765, 0.14858228, 0.463037491, 0.463037491,
          0.222609341, 0.137978509, 0.213631779, 0.463037491,
          0.362610459, 0.00441822456, 0.0465277694, 0.516232967,
          0.516232967, 0.182572424, 0.0763665289, 0.150065705,
          0.516232967, 0.383340359, 0.11966148, 0.304668754, 0.40217182,
          0.355981857, 0.113310397, 0.342201084, 0.40217182, 0.40217182,
          0.463037491, 0.0381041765, 0.14858228, 0.463037491,
          0.463037491, 0.222609341, 0.137978509, 0.213631779,
          0.463037491, 0.362610459, 0.00441822456, 0.0465277694,
          0.516232967, 0.516232967, 0.182572424, 0.0763665289,
          0.150065705, 0.516232967, 0.575706661, 0.0152799729,
          0.00622018008, 0.120983317, 0.11141786, 0.0195219349,
          0.0329685733, 0.550076246, 0.575706661, 0.696235418,
          0.0117897531, 0.037361417, 0.117471159, 0.0870178565,
          0.0180001035, 0.0126698744, 0.0130887236, 0.696235418,
          0.567060232, 0.0301302001, 0.03815246, 0.069914259,
          0.139103249, 0.0468763523, 0.0294438899, 0.567060232,
          0.567060232, 0.0279403944, 0.00418645376, 0.00214002491,
          0.657285154, 0.657285154, 0.0277557112, 0.0116240475,
          0.0779242367, 0.348726302, 0.0685426444, 0.0129544055,
          0.00334578729, 0.60565573, 0.749231398, 0.206003293,
          0.0173905566, 0.0138822943, 0.128629297, 0.0538167059,
          0.0418792665, 0.0362923704, 0.061700508, 0.660947382,
          0.660947382, 0.0165219307, 0.205758289, 0.259450942 ]
      - [ 0.473228753, 0.473228753, 0.228697464, 0.0762436315,
          0.473228753, 0.473228753, 0.18709141, 0.0293689277,
          0.0742298216, 0.530701756, 0.530701756, 0.0677350461,
          0.022942856, 0.348842442, 0.425911874, 0.0561955571,
          0.00992238987, 0.346335918, 0.53691864, 0.0581009015,
          0.0298824608, 0.0154543892, 0.349824965, 0.53691864,
          0.0474677794, 0.0255941059, 0.53691864, 0.660164535,
          0.660164535, 0.250550032, 0.0192291066, 0.0470191948,
          0.201607719, 0.122693159, 0.0153483525, 0.0220045447,
          0.465608418, 0.465608418, 0.0609423295, 0.0251837596,
          0.351762444, 0.465608418, 0.46245712, 0.0415189601,
          0.0360610411, 0.478772491, 0.478772491, 0.0455583446,
          0.0497599877, 0.478772491, 0.478772491, 0.232398555,
          0.101901293, 0.0968562141, 0.280088902, 0.537425399,
          0.537425399, 0.0341419429, 0.0513405874, 0.0222816076,
          0.537425399, 0.21214655, 0.0200243443, 0.422956377,
          0.207950383, 0.169529527, 0.0698504448, 0.156370401,
          0.422956377, 0.422956377, 0.422956377, 0.422956377,
          0.417566508, 0.417566508, 0.140494943, 0.226790518,
          0.417566508, 0.368496001, 0.18808195, 0.236737698, 0.417566508,
          0.280088902, 0.537425399, 0.537425399, 0.0341419429,
          0.0513405874, 0.0222816076, 0.537425399, 0.21214655,
          0.0200243443, 0.422956377, 0.207950383, 0.169529527,
          0.0698504448, 0.156370401, 0.422956377, 0.422956377,
          0.422956377, 0.422956377, 0.417566508, 0.417566508,
          0.140494943, 0.226790518, 0.417566508, 0.368496001, 0.18808195,
          0.236737698, 0.417566508, 0.0338531472, 0.615397155,
          0.615397155, 0.277123481, 0.0647050366, 0.12359146,
          0.341551811, 0.145110667, 0.0361732021, 0.46461916,
          0.123688795, 0.0942373648, 0.0187565796, 0.46461916,
          0.46461916, 0.291574538, 0.149426639, 0.46461916, 0.464874744,
          0.025199499, 0.0103754997, 0.356809944, 0.464874744,
          0.396647334, 0.0395605378, 0.245114207, 0.464874744,
          0.053460937, 0.169706866, 0.526546836, 0.526546836,
          0.0281794257, 0.216878861, 0.526546836, 0.288176239,
          0.0212678872, 0.399233431, 0.399233431, 0.399233431,
          0.198810846, 0.174402207, 0.399233431, 0.399233431,
          0.354139239, 0.0609792173, 0.456971467, 0.3564201, 0.105805136,
          0.33228448, 0.456971467, 0.262646854, 0.0360483862,
          0.223698527, 0.456971467, 0.53691864, 0.0581009015,
          0.0298824608, 0.0154543892, 0.349824965, 0.53691864,
          0.0474677794, 0.0255941059, 0.53691864, 0.391329616,
          0.168293372, 0.369548827, 0.281652629, 0.404502481,
          0.404502481, 0.0306519289, 0.326797783, 0.404502481,
          0.171677485, 0.149391055, 0.366692007, 0.512562573,
          0.135950267, 0.0257311929, 0.0363508202, 0.512562573,
          0.512562573, 0.478772491, 0.478772491, 0.0455583446,
          0.0497599877, 0.478772491, 0.478772491, 0.232398555,
          0.101901293, 0.0968562141, 0.311888039, 0.408996195,
          0.408996195, 0.19521369, 0.220786348, 0.408996195, 0.408996195,
          0.295489937, 0.235285461, 0.0224160459, 0.34946245,
          0.525042713, 0.116139121, 0.0684140474, 0.0328426845,
          0.160851344, 0.525042713, 0.525042713, 0.417566508,
          0.417566508, 0.140494943, 0.226790518, 0.417566508,
          0.368496001, 0.18808195, 0.236737698, 0.417566508, 0.338344753,
          0.338344753, 0.338344753, 0.338344753, 0.338344753,
          0.284257293, 0.338344753, 0.338344753, 0.338344753, 0.39024806,
          0.412627429, 0.412627429, 0.412627429, 0.278766006,
          0.0662363842, 0.26427123, 0.412627429, 0.102965347,
          0.417566508, 0.417566508, 0.140494943, 0.226790518,
          0.417566508, 0.368496001, 0.18808195, 0.236737698, 0.417566508,
          0.338344753, 0.338344753, 0.338344753, 0.338344753,
          0.338344753, 0.284257293, 0.338344753, 0.338344753,
          0.338344753, 0.39024806, 0.412627429, 0.412627429, 0.412627429,
          0.278766006, 0.0662363842, 0.26427123, 0.412627429,
          0.102965347, 0.464874744, 0.025199499, 0.0103754997,
          0.356809944, 0.464874744, 0.396647334, 0.0395605378,
          0.245114207, 0.464874744, 0.401367515, 0.401367515, 0.16202791,
          0.401367515, 0.401367515, 0.0123996809, 0.0548473895,
          0.401367515, 0.401367515, 0.43357864, 0.43357864, 0.43357864,
          0.43357864, 0.122731164, 0.0540863648, 0.43357864, 0.145869032,
          0.128260434, 0.456971467, 0.3564201, 0.105805136, 0.33228448,
          0.456971467, 0.262646854, 0.0360483862, 0.223698527,
          0.456971467, 0.0767831951, 0.192272201, 0.404966503,
          0.404966503, 0.319434255, 0.176245883, 0.404966503,
          0.404966503, 0.404966503, 0.0453192256, 0.441556603,
          0.441556603, 0.441556603, 0.0343970731, 0.441556603,
          0.441556603, 0.116850063, 0.0619456172 ]
      - [ 0.44158265, 0.44158265, 0.44158265, 0.291578144, 0.210789859,
          0.253833205, 0.160767362, 0.178812623, 0.398625046,
          0.368125051, 0.368125051, 0.368125051, 0.360157162,
          0.271095544, 0.368125051, 0.368125051, 0.0551155396,
          0.335407436, 0.560302198, 0.164465457, 0.512439668,
          0.212164164, 0.0847530439, 0.100275598, 0.0578433946,
          0.10623882, 0.560302198, 0.439992815, 0.439992815, 0.408041269,
          0.191008061, 0.0895712823, 0.0709086061, 0.0720925853,
          0.439992815, 0.439992815, 0.148414522, 0.368727416,
          0.368727416, 0.368727416, 0.308670342, 0.368727416,
          0.368727416, 0.368727416, 0.251500785, 0.102573365,
          0.548433065, 0.548433065, 0.548433065, 0.0700059831,
          0.113018624, 0.137240663, 0.109003916, 0.18241328,
          0.0346084386, 0.497593313, 0.497593313, 0.0830406994,
          0.0144248344, 0.0151538532, 0.497593313, 0.489587754,
          0.0632897466, 0.130448684, 0.263476551, 0.461576223,
          0.461576223, 0.0833596289, 0.135800153, 0.461576223,
          0.461576223, 0.177064478, 0.122099712, 0.220870733,
          0.610678613, 0.610678613, 0.205766737, 0.0529133193,
          0.191832364, 0.248908758, 0.201143369, 0.0346084386,
          0.497593313, 0.497593313, 0.0830406994, 0.0144248344,
          0.0151538532, 0.497593313, 0.489587754, 0.0632897466,
          0.130448684, 0.263476551, 0.461576223, 0.461576223,
          0.0833596289, 0.135800153, 0.461576223, 0.461576223,
          0.177064478, 0.122099712, 0.220870733, 0.610678613,
          0.610678613, 0.205766737, 0.0529133193, 0.191832364,
          0.248908758, 0.201143369, 0.016849814, 0.16695568, 0.628133357,
          0.628133357, 0.079497464, 0.00849190261, 0.292740613,
          0.285108596, 0.0556001663, 0.239189386, 0.108350001,
          0.236759692, 0.25342688, 0.155387253, 0.0135341343, 0.51034075,
          0.51034075, 0.51034075, 0.444046021, 0.0300694834, 0.375050038,
          0.444046021, 0.354492515, 0.0886979103, 0.0774952099,
          0.350612789, 0.444046021, 0.0022949155, 0.0353561789,
          0.689759851, 0.689759851, 0.199271247, 0.00447589345,
          0.00851172302, 0.0214098487, 0.00787053257, 0.10465546,
          0.0142600313, 0.157732144, 0.65215081, 0.65215081,
          0.0371933654, 0.0196850803, 0.0600411035, 0.318553895,
          0.316619158, 0.0114616035, 0.0232176781, 0.239068389,
          0.462330073, 0.462330073, 0.0159341767, 0.442503244,
          0.462330073, 0.560302198, 0.164465457, 0.512439668,
          0.212164164, 0.0847530439, 0.100275598, 0.0578433946,
          0.10623882, 0.560302198, 0.115441412, 0.0704668611, 0.15976195,
          0.126940519, 0.0221793707, 0.0187127497, 0.0445348062,
          0.682068765, 0.682068765, 0.0947236344, 0.263568074,
          0.460460573, 0.460460573, 0.230988398, 0.0424034968,
          0.117091656, 0.460460573, 0.460460573, 0.102573365,
          0.548433065, 0.548433065, 0.548433065, 0.0700059831,
          0.113018624, 0.137240663, 0.109003916, 0.18241328,
          0.0353705399, 0.0487026647, 0.136465922, 0.101054378,
          0.126431882, 0.0354037732, 0.255840391, 0.662658989,
          0.662658989, 0.00728147198, 0.0120789483, 0.216460392,
          0.32970655, 0.132911608, 0.0354621373, 0.510038197,
          0.639428377, 0.387201488, 0.122099712, 0.220870733,
          0.610678613, 0.610678613, 0.205766737, 0.0529133193,
          0.191832364, 0.248908758, 0.201143369, 0.0790115371,
          0.0465179197, 0.319723517, 0.562340438, 0.562340438,
          0.10640987, 0.272566617, 0.380336106, 0.14501664, 0.0784505382,
          0.102291629, 0.14409177, 0.136545271, 0.108380184,
          0.0294349175, 0.679255843, 0.679255843, 0.0424782522,
          0.122099712, 0.220870733, 0.610678613, 0.610678613,
          0.205766737, 0.0529133193, 0.191832364, 0.248908758,
          0.201143369, 0.0790115371, 0.0465179197, 0.319723517,
          0.562340438, 0.562340438, 0.10640987, 0.272566617, 0.380336106,
          0.14501664, 0.0784505382, 0.102291629, 0.14409177, 0.136545271,
          0.108380184, 0.0294349175, 0.679255843, 0.679255843,
          0.0424782522, 0.444046021, 0.0300694834, 0.375050038,
          0.444046021, 0.354492515, 0.0886979103, 0.0774952099,
          0.350612789, 0.444046021, 0.268859804, 0.300323099, 0.28240186,
          0.408806652, 0.408806652, 0.285217166, 0.0620105565,
          0.408806652, 0.408806652, 0.161934212, 0.408483118,
          0.408483118, 0.387059599, 0.311380565, 0.408483118,
          0.408483118, 0.228798047, 0.0560468547, 0.316619158,
          0.0114616035, 0.0232176781, 0.239068389, 0.462330073,
          0.462330073, 0.0159341767, 0.442503244, 0.462330073,
          0.21632804, 0.184604496, 0.178541169, 0.281300753, 0.402454823,
          0.402454823, 0.395241976, 0.402454823, 0.402454823,
          0.390382528, 0.390382528, 0.225154489, 0.291947961,
          0.390382528, 0.390382528, 0.390382528, 0.292384773,
          0.112651609 ]
      - [ 0.418135315, 0.418135315, 0.320130229, 0.140090317,
          0.0961384624, 0.418135315, 0.418135315, 0.331106275,
          0.235566705, 0.425212681, 0.425212681, 0.425212681, 0.10479445,
          0.425212681, 0.425212681, 0.191869691, 0.12279468, 0.169849396,
          0.367480606, 0.367480606, 0.367480606, 0.183358654,
          0.367480606, 0.135722071, 0.367480606, 0.367480606,
          0.366109014, 0.278130144, 0.540446758, 0.156021103,
          0.0590938181, 0.104017138, 0.540446758, 0.540446758,
          0.00728640473, 0.0478652194, 0.0708044618, 0.535776794,
          0.535776794, 0.0860915557, 0.162574232, 0.535776794,
          0.298626155, 0.0706577227, 0.0212979652, 0.0179218631,
          0.530393541, 0.530393541, 0.0124903126, 0.00172508461,
          0.0330449864, 0.530393541, 0.386048079, 0.0120742498,
          0.116225846, 0.444985539, 0.444985539, 0.0476729609,
          0.0667379797, 0.434741884, 0.444985539, 0.426977903,
          0.0998649597, 0.416499168, 0.501322746, 0.501322746,
          0.0236993283, 0.0678074509, 0.0752734244, 0.0343432873,
          0.235675588, 0.501322746, 0.0942896381, 0.493179649,
          0.493179649, 0.01196675, 0.00310819852, 0.0354942866,
          0.493179649, 0.493179649, 0.108932465, 0.116225846,
          0.444985539, 0.444985539, 0.0476729609, 0.0667379797,
          0.434741884, 0.444985539, 0.426977903, 0.0998649597,
          0.416499168, 0.501322746, 0.501322746, 0.0236993283,
          0.0678074509, 0.0752734244, 0.0343432873, 0.235675588,
          0.501322746, 0.0942896381, 0.493179649, 0.493179649,
          0.01196675, 0.00310819852, 0.0354942866, 0.493179649,
          0.493179649, 0.108932465, 0.0242873989, 0.348105878,
          0.438601106, 0.438601106, 0.280568451, 0.0463893078,
          0.374858141, 0.438601106, 0.274497747, 0.34072271, 0.483279943,
          0.483279943, 0.398190171, 0.022019539, 0.0259416811,
          0.0193156265, 0.135337502, 0.483279943, 0.398639947,
          0.398639947, 0.398639947, 0.0684545115, 0.0615566634,
          0.184552565, 0.398639947, 0.398639947, 0.398639947,
          0.117844984, 0.0566768274, 0.490982622, 0.490982622,
          0.0924063474, 0.0304771159, 0.0653682426, 0.490982622,
          0.490982622, 0.125657305, 0.137689456, 0.574450076,
          0.574450076, 0.0999137089, 0.0261497684, 0.0530767776,
          0.314731836, 0.432423562, 0.27409175, 0.0721535981,
          0.239745632, 0.516228557, 0.439386547, 0.516228557,
          0.299755394, 0.056437619, 0.194810659, 0.367480606,
          0.367480606, 0.367480606, 0.183358654, 0.367480606,
          0.135722071, 0.367480606, 0.367480606, 0.366109014,
          0.0618319996, 0.0197521225, 0.0641219616, 0.456262022,
          0.456262022, 0.361965537, 0.456262022, 0.456262022,
          0.152965337, 0.0153084276, 0.276529014, 0.597098589,
          0.597098589, 0.415165275, 0.0683298111, 0.150324076,
          0.0534585156, 0.0423739888, 0.0179218631, 0.530393541,
          0.530393541, 0.0124903126, 0.00172508461, 0.0330449864,
          0.530393541, 0.386048079, 0.0120742498, 0.0437057689,
          0.0379811153, 0.0413177684, 0.161295369, 0.0945504978,
          0.0769056603, 0.685248017, 0.685248017, 0.0899962783,
          0.0369548276, 0.139728352, 0.674787462, 0.674787462,
          0.109972693, 0.0582993068, 0.171153694, 0.116705135,
          0.0573704951, 0.0942896381, 0.493179649, 0.493179649,
          0.01196675, 0.00310819852, 0.0354942866, 0.493179649,
          0.493179649, 0.108932465, 0.501346111, 0.230540738,
          0.0621037595, 0.0465485491, 0.00795045402, 0.0845342502,
          0.501346111, 0.501346111, 0.417812407, 0.0801674351,
          0.493785948, 0.493785948, 0.344242871, 0.033518631,
          0.0530297942, 0.307058215, 0.493785948, 0.201107323,
          0.0942896381, 0.493179649, 0.493179649, 0.01196675,
          0.00310819852, 0.0354942866, 0.493179649, 0.493179649,
          0.108932465, 0.501346111, 0.230540738, 0.0621037595,
          0.0465485491, 0.00795045402, 0.0845342502, 0.501346111,
          0.501346111, 0.417812407, 0.0801674351, 0.493785948,
          0.493785948, 0.344242871, 0.033518631, 0.0530297942,
          0.307058215, 0.493785948, 0.201107323, 0.398639947,
          0.398639947, 0.398639947, 0.0684545115, 0.0615566634,
          0.184552565, 0.398639947, 0.398639947, 0.398639947, 0.45385623,
          0.136487156, 0.00369125861, 0.00668514892, 0.0327318162,
          0.45385623, 0.45385623, 0.45385623, 0.389571965, 0.223971814,
          0.468648642, 0.468648642, 0.143082902, 0.112273835,
          0.208375543, 0.468648642, 0.448634386, 0.0921396613,
          0.27409175, 0.0721535981, 0.239745632, 0.516228557,
          0.439386547, 0.516228557, 0.299755394, 0.056437619,
          0.194810659, 0.544539273, 0.273577154, 0.00823936798,
          0.00903292932, 0.0984643847, 0.544539273, 0.544539273,
          0.0636367649, 0.127492145, 0.591640711, 0.591640711,
          0.250721484, 0.0987619907, 0.0953919888, 0.292220503,
          0.315468103, 0.10466411, 0.128189817 ]
      - [ 0.528387308, 0.528387308, 0.0572210699, 0.0351581872,
          0.22303772, 0.528387308, 0.305476785, 0.00667528389,
          0.0976058021, 0.197216168, 0.508523166, 0.508523166,
          0.0371439643, 0.398786664, 0.508523166, 0.137535512,
          0.00377239147, 0.0299809314, 0.407119364, 0.407119364,
          0.407119364, 0.0130619053, 0.0220689997, 0.0282498002,
          0.407119364, 0.407119364, 0.407119364, 0.163808808,
          0.296276093, 0.0944822356, 0.105116092, 0.255209744,
          0.624155462, 0.624155462, 0.104757145, 0.0627132133,
          8.6419881e-05, 0.699609041, 0.699609041, 0.0996753275,
          0.0546395369, 0.032464575, 0.0114650037, 0.00212442665,
          0.000130751243, 0.00108000787, 0.514383256, 0.514383256,
          0.00441219611, 0.000710915425, 0.000545093208, 0.514383256,
          0.448408872, 0.000598798797, 0.111912765, 0.155648649,
          0.0722482204, 0.100371614, 0.144407243, 0.388364226,
          0.613559902, 0.613559902, 0.131288961, 0.0132958833,
          0.703780949, 0.703780949, 0.0341799967, 0.0187779199,
          0.000851873192, 0.0218113642, 0.0125916637, 0.00515869679,
          0.000233951767, 0.5281021, 0.5281021, 0.0357008465,
          0.0059784702, 0.00899659656, 0.5281021, 0.395801961,
          8.23346709e-05, 0.111912765, 0.155648649, 0.0722482204,
          0.100371614, 0.144407243, 0.388364226, 0.613559902,
          0.613559902, 0.131288961, 0.0132958833, 0.703780949,
          0.703780949, 0.0341799967, 0.0187779199, 0.000851873192,
          0.0218113642, 0.0125916637, 0.00515869679, 0.000233951767,
          0.5281021, 0.5281021, 0.0357008465, 0.0059784702,
          0.00899659656, 0.5281021, 0.395801961, 8.23346709e-05,
          0.129910707, 0.196053743, 0.106038988, 0.233789489,
          0.311822891, 0.0564159378, 0.565087199, 0.565087199,
          0.36616677, 0.049920354, 0.700277269, 0.700277269,
          0.0042764754, 0.00155069039, 5.00985152e-05, 0.0490216129,
          0.0766602308, 0.0379508175, 0.000274144433, 0.533941925,
          0.533941925, 0.00764842145, 0.00069720071, 0.00191752939,
          0.533941925, 0.37326017, 0.000167904698, 0.0843949616,
          0.0320463926, 0.366151541, 0.53056854, 0.0424066409,
          0.00259169913, 0.0785546377, 0.53056854, 0.53056854,
          0.0673542097, 0.646789432, 0.646789432, 0.127806455,
          0.0202036314, 0.00567267323, 0.108424284, 0.241346598,
          0.256035388, 0.00296179857, 0.482245207, 0.482245207,
          0.122584559, 0.390765578, 0.0935157165, 0.482245207,
          0.347851992, 0.00473765377, 0.407119364, 0.407119364,
          0.407119364, 0.0130619053, 0.0220689997, 0.0282498002,
          0.407119364, 0.407119364, 0.407119364, 0.0612237006,
          0.0179622527, 0.0373985283, 0.506257176, 0.268349379,
          0.0058333287, 0.560457766, 0.560457766, 0.179905981,
          0.00172354328, 0.0184510462, 0.536382616, 0.730858386,
          0.411504775, 0.0212324951, 0.0170353111, 0.0177912842,
          0.010354667, 0.00108000787, 0.514383256, 0.514383256,
          0.00441219611, 0.000710915425, 0.000545093208, 0.514383256,
          0.448408872, 0.000598798797, 0.000746367732, 0.00403897185,
          0.00967610534, 0.00640312815, 0.0110533005, 0.0230869688,
          0.704308033, 0.704308033, 0.00793317799, 0.0302815121,
          0.0603385381, 0.514492691, 0.514492691, 0.486111492,
          0.383866042, 0.25217399, 0.111013524, 0.0364054963,
          0.000233951767, 0.5281021, 0.5281021, 0.0357008465,
          0.0059784702, 0.00899659656, 0.5281021, 0.395801961,
          8.23346709e-05, 0.000231595768, 0.00113760657, 0.00829213578,
          0.0030873951, 0.00193251728, 0.0109125469, 0.704537153,
          0.704537153, 0.00439252378, 0.152589709, 0.280017704,
          0.465384305, 0.079824239, 0.042088192, 0.237715214,
          0.465384305, 0.465384305, 0.423389465, 0.000233951767,
          0.5281021, 0.5281021, 0.0357008465, 0.0059784702,
          0.00899659656, 0.5281021, 0.395801961, 8.23346709e-05,
          0.000231595768, 0.00113760657, 0.00829213578, 0.0030873951,
          0.00193251728, 0.0109125469, 0.704537153, 0.704537153,
          0.00439252378, 0.152589709, 0.280017704, 0.465384305,
          0.079824239, 0.042088192, 0.237715214, 0.465384305,
          0.465384305, 0.423389465, 0.000274144433, 0.533941925,
          0.533941925, 0.00764842145, 0.00069720071, 0.00191752939,
          0.533941925, 0.37326017, 0.000167904698, 0.000152869208,
          0.00194227055, 0.00862675253, 0.00234085415, 0.000250236597,
          0.00712342327, 0.70456773, 0.70456773, 0.000859477324,
          0.167557254, 0.50931108, 0.50931108, 0.0936494395,
          0.0327509083, 0.119561546, 0.50931108, 0.401231557,
          0.0593310185, 0.00296179857, 0.482245207, 0.482245207,
          0.122584559, 0.390765578, 0.0935157165, 0.482245207,
          0.347851992, 0.00473765377, 0.17396687, 0.0505669899,
          0.0148275122, 0.00199163193, 0.0732668117, 0.145437449,
          0.682493627, 0.682493627, 0.0450149849, 0.682284176,
          0.682284176, 0.123253785, 0.0171857942, 0.0110890437,
          0.0190262254, 0.166020975, 0.0956347138, 0.0973897278 ]
      - [ 0.365117729, 0.5062536, 0.0371332467, 0.0245934706,
          0.0976072028, 0.5062536, 0.5062536, 0.221475124, 0.179423362,
          0.412409127, 0.412409127, 0.0730578378, 0.412409127,
          0.233398795, 0.327377468, 0.295502275, 0.247477233,
          0.412409127, 0.260763645, 0.0624060519, 0.054268755,
          0.518320918, 0.518320918, 0.0268063229, 0.000874381221,
          0.33659634, 0.518320918, 0.461244315, 0.461244315, 0.45321393,
          0.286581427, 0.169285119, 0.461244315, 0.146904394,
          0.056616541, 0.127194002, 0.518736303, 0.518736303,
          0.132717595, 0.0618689656, 0.136390314, 0.227366939,
          0.221251801, 0.216483742, 0.518736303, 0.448100418,
          0.0320339203, 0.011456213, 0.209449366, 0.411949933,
          0.141751543, 0.0952944905, 0.425553232, 0.606752455,
          0.0882349834, 0.252224416, 0.481778115, 0.481778115,
          0.0875396058, 0.0563572235, 0.140441999, 0.481778115,
          0.44372499, 0.154837325, 0.0859420821, 0.52524823, 0.52524823,
          0.30415687, 0.143213287, 0.393288493, 0.296047032, 0.237236857,
          0.374056697, 0.0629807711, 0.0272997953, 0.191471696,
          0.301954836, 0.233386323, 0.496805221, 0.371929109,
          0.531607747, 0.0882349834, 0.252224416, 0.481778115,
          0.481778115, 0.0875396058, 0.0563572235, 0.140441999,
          0.481778115, 0.44372499, 0.154837325, 0.0859420821, 0.52524823,
          0.52524823, 0.30415687, 0.143213287, 0.393288493, 0.296047032,
          0.237236857, 0.374056697, 0.0629807711, 0.0272997953,
          0.191471696, 0.301954836, 0.233386323, 0.496805221,
          0.371929109, 0.531607747, 0.043183323, 0.0261889901,
          0.504639506, 0.515453875, 0.0276176017, 0.0577121265,
          0.353134274, 0.515453875, 0.278312653, 0.0566167496,
          0.0295100436, 0.556612015, 0.556612015, 0.15016675,
          0.0249035377, 0.1455708, 0.556612015, 0.128659412, 0.336763263,
          0.241593748, 0.150743067, 0.496422917, 0.496422917,
          0.215634942, 0.132346794, 0.320441186, 0.375464141,
          0.298247129, 0.41170606, 0.156897366, 0.132701606, 0.41170606,
          0.41170606, 0.41170606, 0.41170606, 0.131148383, 0.419816703,
          0.237740517, 0.189720422, 0.419816703, 0.332161635,
          0.173886612, 0.24029085, 0.419816703, 0.419816703, 0.12200176,
          0.0126408339, 0.0283270553, 0.530847728, 0.530847728,
          0.0995839685, 0.124644235, 0.328635097, 0.530847728,
          0.260763645, 0.0624060519, 0.054268755, 0.518320918,
          0.518320918, 0.0268063229, 0.000874381221, 0.33659634,
          0.518320918, 0.164649501, 0.0284117125, 0.0119767264,
          0.508814514, 0.508814514, 0.151238427, 0.00973695144,
          0.408917874, 0.508814514, 0.315763175, 0.406815261,
          0.406815261, 0.311422467, 0.406815261, 0.406815261,
          0.255990863, 0.138837934, 0.229006156, 0.448100418,
          0.0320339203, 0.011456213, 0.209449366, 0.411949933,
          0.141751543, 0.0952944905, 0.425553232, 0.606752455,
          0.429986328, 0.0335033312, 0.0788692459, 0.327806115,
          0.342047572, 0.0451600924, 0.0967906564, 0.53225565,
          0.53225565, 0.0792488605, 0.293114305, 0.455121368,
          0.455121368, 0.191541985, 0.0503465198, 0.188395068,
